#include <math.h> 
 #include <string.h> 
#include "./include/k2c_include.h" 
#include "./include/k2c_tensor_include.h" 

 


void mymodel(k2c_tensor* keras_tensor_81_input, k2c_tensor* keras_tensor_91_output) { 

float keras_tensor_82_output_array[247] = {0}; 
k2c_tensor keras_tensor_82_output = { &keras_tensor_82_output_array[0], 2, 247, { 19,13, 1, 1, 1 } }; 
size_t reshape_1_newndim = 2; 
size_t reshape_1_newshp[K2C_MAX_NDIM] = {19,13, 1, 1, 1}; 


size_t conv1d_3_stride = 1; 
size_t conv1d_3_dilation = 1; 
float keras_tensor_83_output_array[304] = {0}; 
k2c_tensor keras_tensor_83_output = { &keras_tensor_83_output_array[0], 2, 304, { 19,16, 1, 1, 1 } }; 
float conv1d_3_padded_input_array[273] = {0}; 
k2c_tensor conv1d_3_padded_input = { &conv1d_3_padded_input_array[0], 2, 273, { 21,13, 1, 1, 1 } }; 
size_t conv1d_3_pad[2] = {1,1}; 
float conv1d_3_fill = 0.0f; 
float conv1d_3_kernel_array[624] = {
-1.29138815e+00f,+1.37864381e-01f,+7.39136636e-01f,-2.99974591e-01f,+4.82831836e-01f,
+8.18266809e-01f,+2.99802512e-01f,+6.67489886e-01f,+7.63934493e-01f,-3.43737841e-01f,
+5.98635495e-01f,+2.13813975e-01f,-8.07264090e-01f,-5.41011989e-01f,+2.06333116e-01f,
+1.40294194e-01f,+3.29496175e-01f,+3.34063262e-01f,-3.60016853e-01f,-2.15028539e-01f,
-7.70403087e-01f,+3.31719160e-01f,+7.26979822e-02f,-8.46747160e-01f,-1.12063563e+00f,
-2.28105426e-01f,-9.33943748e-01f,+6.02081776e-01f,+2.09570304e-01f,-1.06761947e-01f,
+2.78004110e-01f,+6.71209693e-02f,+3.37051153e-01f,-6.75582886e-02f,+7.54823759e-02f,
-1.26682699e-01f,-6.88769519e-02f,-6.43781841e-01f,+6.53803051e-02f,+9.56089258e-01f,
-3.08200568e-01f,+7.43161663e-02f,+1.18814126e-01f,+1.64008960e-01f,-5.37107944e-01f,
+1.11732565e-01f,-8.97724628e-01f,-2.43417714e-02f,+1.13864481e-01f,+2.44873449e-01f,
-5.49968958e-01f,-4.39058542e-02f,+3.90171885e-01f,-8.49303827e-02f,-5.11665344e-02f,
-8.06577921e-01f,-3.86565119e-01f,-2.69444846e-02f,+2.11277172e-01f,+5.38451552e-01f,
+6.40274584e-01f,+4.84086752e-01f,+2.18691871e-01f,+4.88611609e-01f,-1.25715569e-01f,
-2.75395274e-01f,+6.16838753e-01f,-2.05123201e-01f,-1.65342107e-01f,-2.75776356e-01f,
+4.83156741e-01f,-1.54749630e-02f,+3.67367119e-02f,-7.40974844e-02f,+5.37550807e-01f,
-2.83806771e-01f,-3.16967696e-01f,-2.64505800e-02f,+4.33891505e-01f,-1.20645896e-01f,
+3.03220987e-01f,+2.58241624e-01f,-5.67768738e-02f,+4.34600472e-01f,+1.66696385e-01f,
-1.40565420e-02f,-2.26786211e-01f,-1.12934552e-01f,+1.79666162e-01f,-2.63811741e-02f,
-1.58595666e-01f,-5.53000979e-02f,+3.17775369e-01f,+5.37479520e-02f,+2.11861089e-01f,
-2.94096589e-01f,+1.01490319e-01f,-2.99120713e-02f,-3.89653385e-01f,-5.01206756e-01f,
+1.81386210e-02f,+3.54952842e-01f,+1.86496824e-02f,-5.61908662e-01f,+1.99726567e-01f,
-1.90092817e-01f,-2.33557165e-01f,+5.23235381e-01f,-1.11150384e-01f,-3.52276675e-02f,
-2.62349457e-01f,+3.57270569e-01f,+3.15626085e-01f,-5.41236345e-03f,+2.65248835e-01f,
+1.33577436e-01f,-1.41521916e-01f,-3.47643882e-01f,-1.96307264e-02f,+1.20432273e-01f,
-6.25715494e-01f,-2.16781035e-01f,-4.42321658e-01f,-5.94274640e-01f,-1.18705161e-01f,
+2.73284137e-01f,+5.87130189e-01f,+1.96677104e-01f,-2.61474717e-02f,+1.47169838e-02f,
-5.88889182e-01f,-5.45015633e-01f,-6.90894961e-01f,+2.80802995e-01f,-1.22427437e-02f,
-3.00205518e-02f,+6.93554103e-01f,-1.72220036e-01f,-1.43333465e-01f,+6.28764629e-02f,
+9.95068178e-02f,-1.83678448e-01f,-4.17251624e-02f,+3.31905365e-01f,-1.98066775e-02f,
-5.76186366e-03f,+2.00127482e-01f,+8.14510405e-01f,+8.82925391e-02f,-1.59233898e-01f,
+1.61582917e-01f,+2.38425374e-01f,-1.95661440e-01f,+2.72571564e-01f,+1.84795007e-01f,
+8.05165917e-02f,-1.33558214e-01f,+4.53481562e-02f,+4.03311439e-02f,-1.18131466e-01f,
-6.87882230e-02f,-2.92316284e-02f,+6.97413087e-02f,-4.36498731e-01f,+6.54599547e-01f,
-9.29458290e-02f,-3.65619594e-03f,+4.18849707e-01f,+1.27767414e-01f,-2.17332229e-01f,
-3.99755627e-01f,-2.83207029e-01f,+2.20253654e-02f,-5.54237701e-02f,+3.97622555e-01f,
+3.11160773e-01f,-1.51251201e-02f,+1.83737054e-01f,+5.04909575e-01f,-7.63033843e-03f,
+1.06146172e-01f,+6.83388636e-02f,-2.67739147e-01f,-2.72149742e-01f,-2.21789986e-01f,
-8.93691555e-02f,+2.00867340e-01f,+1.17827468e-01f,-3.57153058e-01f,-3.08263339e-02f,
-4.01129633e-01f,-3.40327144e-01f,-5.89982904e-02f,-4.28345889e-01f,-1.03723265e-01f,
-3.53791028e-01f,-2.62612790e-01f,-1.41460776e-01f,+1.45611968e-02f,-9.58303884e-02f,
+1.26686230e-01f,+6.24184981e-02f,+7.27335960e-02f,-2.99199581e-01f,+1.79255605e-02f,
-8.24021026e-02f,+4.45828557e-01f,+2.50378579e-01f,+9.07109007e-02f,+1.17304277e+00f,
+3.86654407e-01f,-5.43599904e-01f,-1.65315971e-01f,-7.54718065e-01f,-1.89480984e+00f,
+1.20728576e+00f,+1.91707045e-01f,-8.67873251e-01f,-2.57100940e-01f,+1.86249837e-01f,
-8.48124743e-01f,-7.13182569e-01f,+8.57220173e-01f,-5.72735816e-02f,+5.13614118e-01f,
+5.03531039e-01f,-5.97589016e-01f,+5.41108787e-01f,+4.87864196e-01f,-9.14014876e-02f,
-1.58769712e-02f,-5.01533628e-01f,-4.60332304e-01f,-3.39848757e-01f,-1.12172532e+00f,
+8.21604311e-01f,+2.56451517e-01f,+7.84572959e-01f,+7.32057035e-01f,-7.05138206e-01f,
-2.85663307e-01f,-5.21039426e-01f,+3.69410455e-01f,-1.27450392e-01f,+2.80639857e-01f,
+3.25157970e-01f,+2.25447342e-01f,+5.60328782e-01f,-3.57490838e-01f,+6.78636253e-01f,
+3.81592423e-01f,-1.25161722e-01f,-4.78507549e-01f,-4.60539043e-01f,-4.51667935e-01f,
+3.86021465e-01f,-1.01247773e-01f,-2.69320041e-01f,+2.74638444e-01f,+2.89628237e-01f,
-1.71095818e-01f,+1.39248535e-01f,+6.63197815e-01f,-2.53591686e-02f,+5.80879264e-02f,
-5.44285893e-01f,-3.39147657e-01f,-2.31902543e-02f,+4.75278199e-01f,+1.10705338e-01f,
-1.45152569e-01f,-9.90851149e-02f,-2.25294709e-01f,+2.26005107e-01f,+4.56474781e-01f,
-4.07846332e-01f,-4.18711066e-01f,-3.66478026e-01f,-2.57578552e-01f,-3.76114368e-01f,
+8.76150548e-01f,+3.36100578e-01f,-5.23705371e-02f,+4.97863442e-02f,-1.31362066e-01f,
-4.72704656e-02f,-3.07198942e-01f,+1.30995959e-02f,+4.03538615e-01f,+4.23504561e-02f,
-1.43450886e-01f,+7.37911556e-03f,+7.88223222e-02f,-1.79293901e-01f,-2.08710298e-01f,
+4.48570102e-01f,+2.61515547e-02f,+5.37245423e-02f,+4.43004072e-02f,-1.42123789e-01f,
-9.15404968e-03f,+4.09856796e-01f,+2.27682754e-01f,-2.63943553e-01f,-8.95676296e-03f,
-4.88612838e-02f,-2.21910760e-01f,-1.99502766e-01f,+3.80007267e-01f,+7.51585811e-02f,
+2.98717264e-02f,-1.31127492e-01f,-2.44272277e-01f,+1.12158164e-01f,-2.80329049e-01f,
+7.83360541e-01f,+3.01913798e-01f,-1.68353677e-01f,+7.59954751e-01f,+8.09636638e-02f,
-1.18195511e-01f,-5.24403036e-01f,+4.95489359e-01f,-2.20001370e-01f,+3.72244716e-02f,
-2.01177433e-01f,+1.14461750e-01f,-1.58644900e-01f,-2.93650270e-01f,+3.44693840e-01f,
+6.15928285e-02f,-2.00741738e-01f,+7.75134657e-04f,+1.65631413e-01f,-1.28925607e-01f,
+1.04175195e-01f,+2.19535872e-01f,+1.11226365e-01f,-2.17974991e-01f,+2.01920360e-01f,
-2.32098043e-01f,+2.74908662e-01f,-3.13189253e-02f,-3.77683602e-02f,-1.61556676e-01f,
-5.96336186e-01f,-2.23200157e-01f,+2.39557549e-02f,+1.67357028e-01f,-3.03418577e-01f,
-4.04055178e-01f,+1.44208893e-01f,-8.18871558e-02f,-3.88912298e-02f,+1.55294031e-01f,
-9.35984477e-02f,-1.66369185e-01f,-3.46223593e-01f,+8.24411809e-02f,+1.23094551e-01f,
-1.62998185e-01f,+5.92913747e-01f,+9.24918726e-02f,-6.10059639e-03f,+1.26707122e-01f,
-1.29930809e-01f,+4.54102457e-02f,-2.82446027e-01f,-2.57590324e-01f,+1.89942941e-01f,
-3.50179881e-01f,+1.64675340e-01f,+2.70596385e-01f,+3.21990371e-01f,-1.90683275e-01f,
+2.40056291e-01f,+2.75370516e-02f,-6.24583304e-01f,-4.29989398e-02f,-6.77780434e-02f,
+6.85485825e-02f,-8.59714001e-02f,-1.06948856e-02f,+4.49975356e-02f,-4.64597940e-01f,
-3.79884958e-01f,+1.96573883e-01f,+2.51102388e-01f,+1.70395657e-01f,-7.97679871e-02f,
+2.95950681e-01f,-5.59497476e-02f,-2.82658011e-01f,+7.36729980e-01f,+5.71260750e-01f,
-1.97305143e-01f,+1.08120240e-01f,+7.00657815e-02f,+1.90796945e-02f,+2.65974730e-01f,
+3.55442017e-02f,-6.02742210e-02f,-2.44974673e-01f,-3.93921196e-01f,-5.96818328e-01f,
-3.25067103e-01f,+1.98885258e-02f,+1.88713342e-01f,-2.71233350e-01f,-3.74138385e-01f,
+2.71299873e-02f,-3.38950843e-01f,+1.18211135e-01f,-5.89913845e-01f,+6.59391820e-01f,
-1.02158815e-01f,-4.79475170e-01f,+1.14303458e+00f,+6.43028080e-01f,-1.96934924e-01f,
+5.93258440e-01f,+6.61936581e-01f,+4.00698453e-01f,+1.00701320e+00f,+3.44502658e-01f,
-2.92137682e-01f,-4.92529780e-01f,-5.79826832e-01f,-7.82636881e-01f,+1.33525455e+00f,
-2.31817812e-01f,+1.67365158e+00f,-7.87286162e-01f,-1.93092823e-01f,-2.78045654e-01f,
+2.28281841e-01f,+2.63649493e-01f,-1.38203871e+00f,-5.39933518e-02f,-5.87460101e-01f,
-4.63904262e-01f,-5.18630743e-01f,+4.38820332e-01f,+8.67668450e-01f,+4.30270612e-01f,
-6.29864216e-01f,-3.83811563e-01f,-4.39050406e-01f,+4.22074139e-01f,+2.74919458e-02f,
-5.13180673e-01f,-6.49257451e-02f,+4.74186242e-01f,+4.19512242e-01f,+1.99030980e-01f,
+3.47930402e-01f,-3.47243190e-01f,+3.86610568e-01f,-5.27977049e-01f,+4.22370940e-01f,
-4.76014227e-01f,+3.42082269e-02f,+3.07530165e-01f,-1.44438222e-01f,+7.07644746e-02f,
-8.45952749e-01f,-3.91765177e-01f,+3.32150966e-01f,-5.63459098e-01f,+4.44067061e-01f,
-2.74917960e-01f,-2.96463639e-01f,-1.93692490e-01f,-3.17837596e-01f,+2.65418757e-02f,
-3.93763095e-01f,+4.60003227e-01f,-6.94450557e-01f,+1.04707196e-01f,-2.15256333e-01f,
+9.96744111e-02f,+3.85771036e-01f,-1.52904034e-01f,-5.89813769e-01f,-1.52253643e-01f,
-6.75774887e-02f,-6.31727517e-01f,+4.66460615e-01f,+1.55651987e-01f,+2.52066284e-01f,
-3.35351884e-01f,-5.66688955e-01f,-4.13806558e-01f,-1.47156999e-01f,+8.20015594e-02f,
-2.54689395e-01f,+4.38809156e-01f,-7.80624747e-01f,+1.68371290e-01f,+2.21328869e-01f,
+1.40113860e-01f,-6.93142787e-02f,+1.82461455e-01f,-3.73035461e-01f,-4.64584589e-01f,
-1.29045039e-01f,-3.33012104e-01f,+1.26303121e-01f,+1.03546537e-01f,+6.73042655e-01f,
+9.60507244e-02f,-5.83525747e-02f,-7.16105759e-01f,+3.41670573e-01f,-4.60120551e-02f,
-1.65210590e-01f,+3.81388664e-01f,-7.61780143e-01f,+2.82023191e-01f,+2.09222421e-01f,
-3.67420495e-01f,+1.18078375e-02f,+1.70165017e-01f,-2.00987116e-01f,+3.16473931e-01f,
+7.57889301e-02f,+1.26708001e-02f,+4.21084344e-01f,-1.40844017e-01f,+2.29200155e-01f,
-1.50868669e-01f,-1.06835887e-01f,-4.24701273e-01f,+6.82460546e-01f,-1.51671037e-01f,
+8.64535794e-02f,-5.13864040e-01f,+2.92629361e-01f,-1.18808299e-01f,+4.27995175e-01f,
-1.01952497e-02f,+1.29382953e-01f,-3.33277225e-01f,-4.35920358e-01f,+7.52903149e-02f,
-3.00073624e-01f,-2.60073304e-01f,+3.03590149e-01f,+1.54506907e-01f,-1.74382612e-01f,
+2.85447508e-01f,+2.87125677e-01f,-1.45732388e-01f,-4.15298074e-01f,-2.62274817e-02f,
-5.27831078e-01f,-1.20763928e-01f,-2.73933262e-01f,-2.78695583e-01f,+1.34342089e-01f,
-6.53132349e-02f,+4.53575611e-01f,+5.42919457e-01f,-6.34623349e-01f,-4.27426919e-02f,
-3.67765486e-01f,-1.53152734e-01f,-1.78176567e-01f,-9.87065956e-04f,-8.56779963e-02f,
-9.06189438e-03f,+2.26824105e-01f,+4.26270068e-01f,-3.94377261e-01f,+3.07191223e-01f,
+9.82923061e-02f,-3.90726775e-01f,-3.80032100e-02f,-7.40085691e-02f,+5.09451985e-01f,
-5.05345106e-01f,+4.10953432e-01f,+1.18629247e-01f,+1.88978091e-01f,+2.03408703e-01f,
+7.76932016e-02f,+1.58536255e-01f,-5.50417937e-02f,+9.55715254e-02f,+8.78950879e-02f,
-5.35056181e-02f,-5.46724260e-01f,-3.68749112e-01f,-1.26733128e-02f,-6.32022098e-02f,
+3.67201358e-01f,-7.94030055e-02f,+1.19986564e-01f,+3.35963637e-01f,-8.99631009e-02f,
-6.13101684e-02f,+6.41044229e-02f,+2.82834023e-01f,+7.00461790e-02f,-4.35994834e-01f,
+6.03767157e-01f,-1.39011726e-01f,+4.52326655e-01f,+1.89861059e-02f,-1.31291673e-01f,
-1.56132326e-01f,-1.72156885e-01f,-5.48576489e-02f,-1.93876699e-02f,+1.41216880e-02f,
+4.43138391e-01f,+2.53459513e-01f,+3.92461151e-01f,+2.02945843e-01f,+7.15418831e-02f,
+6.27092063e-01f,-3.97447318e-01f,-2.31820688e-01f,-4.89599377e-01f,}; 
k2c_tensor conv1d_3_kernel = { &conv1d_3_kernel_array[0], 3, 624, {  3,13,16, 1, 1 } }; 
float conv1d_3_bias_array[16] = {
-8.87717724e-01f,-3.52127820e-01f,-2.79238939e-01f,-8.59297872e-01f,-6.83607697e-01f,
-6.83552325e-01f,-7.16530383e-01f,-4.00163025e-01f,-1.11726952e+00f,-1.13318694e+00f,
-6.49192989e-01f,-3.02103102e-01f,-1.10172880e+00f,-1.62594903e+00f,-7.43808091e-01f,
-3.04483056e-01f,}; 
k2c_tensor conv1d_3_bias = { &conv1d_3_bias_array[0], 1, 16, { 16, 1, 1, 1, 1 } }; 

 
size_t max_pooling1d_3_stride = 2; 
size_t max_pooling1d_3_pool_size = 2; 
float keras_tensor_84_output_array[160] = {0}; 
k2c_tensor keras_tensor_84_output = { &keras_tensor_84_output_array[0], 2, 160, { 10,16, 1, 1, 1 } }; 
float max_pooling1d_3_padded_input_array[320] = {0}; 
k2c_tensor max_pooling1d_3_padded_input = { &max_pooling1d_3_padded_input_array[0], 2, 320, { 20,16, 1, 1, 1 } }; 
size_t max_pooling1d_3_pad[2] = {0,1}; 
float max_pooling1d_3_fill = -HUGE_VALF; 


size_t conv1d_4_stride = 1; 
size_t conv1d_4_dilation = 1; 
float keras_tensor_85_output_array[320] = {0}; 
k2c_tensor keras_tensor_85_output = { &keras_tensor_85_output_array[0], 2, 320, { 10,32, 1, 1, 1 } }; 
float conv1d_4_padded_input_array[192] = {0}; 
k2c_tensor conv1d_4_padded_input = { &conv1d_4_padded_input_array[0], 2, 192, { 12,16, 1, 1, 1 } }; 
size_t conv1d_4_pad[2] = {1,1}; 
float conv1d_4_fill = 0.0f; 
float conv1d_4_kernel_array[1536] = {
-4.40944493e-01f,-2.12865725e-01f,-3.20007890e-01f,-5.31166643e-02f,-2.05848321e-01f,
-7.46118510e-03f,+2.77803212e-01f,+1.16269775e-01f,+1.39044402e-02f,-3.73587281e-01f,
+1.20110303e-01f,-1.58500135e-01f,+1.30187184e-01f,-5.63566625e-01f,+7.27656662e-01f,
+5.93505681e-01f,-4.74750519e-01f,-3.23181838e-01f,+6.54112101e-02f,-2.54606634e-01f,
-1.24333307e-01f,-2.79762536e-01f,-2.73991197e-01f,+3.22052121e-01f,-2.87063360e-01f,
-3.70046824e-01f,-2.56880727e-02f,+4.95217979e-01f,+1.21828765e-01f,-6.13557473e-02f,
-2.41229236e-01f,+7.66001716e-02f,-8.16872269e-02f,-5.28984249e-01f,-4.68966030e-02f,
-2.29869470e-01f,-3.03105295e-01f,+5.44287749e-02f,-4.78857577e-01f,-2.02438891e-01f,
-2.81544507e-01f,-3.30385745e-01f,-8.35760057e-01f,-6.94212615e-02f,-3.15241933e-01f,
-1.29258826e-01f,-7.19758451e-01f,-5.71329236e-01f,+3.87824059e-01f,-1.12878688e-01f,
-3.03177923e-01f,-9.52703729e-02f,-2.05152914e-01f,-2.55349278e-02f,+4.64370362e-02f,
-3.46734107e-01f,-7.74195120e-02f,-4.13222462e-01f,-1.74534217e-01f,+9.83529016e-02f,
+2.42281780e-01f,+7.98797607e-02f,-1.44441128e-02f,+1.40408680e-01f,+6.28113806e-01f,
-8.26645568e-02f,-2.61505067e-01f,-3.56080920e-01f,-5.49890101e-01f,-3.73776168e-01f,
-2.14573622e-01f,-5.11141360e-01f,-2.16503516e-01f,-1.28195018e-01f,+6.72582448e-01f,
-1.21917474e+00f,+2.21974880e-01f,-6.13210976e-01f,+2.65121430e-01f,-8.87071788e-02f,
-5.20996034e-01f,-3.40316772e-01f,+8.21506381e-02f,-1.62961647e-01f,-2.34421521e-01f,
-1.91089287e-01f,-1.48621857e-01f,+6.28824905e-02f,-1.95312902e-01f,-2.44576707e-01f,
-2.22401336e-01f,-1.41593859e-01f,-5.35217039e-02f,-8.59624624e-01f,-2.97089130e-01f,
+2.02279523e-01f,+3.85867655e-01f,-4.47302997e-01f,-8.17034006e-01f,+5.36991000e-01f,
+3.33285153e-01f,-3.34081173e-01f,+6.76967874e-02f,+1.28696054e-01f,+8.02107900e-02f,
-1.33574113e-01f,-3.67060393e-01f,-6.29578710e-01f,-4.53661056e-03f,-2.33448461e-01f,
-3.33797663e-01f,+3.95023108e-01f,+5.15017696e-02f,-3.29962313e-01f,+1.04832217e-01f,
-5.63284047e-02f,-9.96326655e-02f,+2.03491688e-01f,-6.97838426e-01f,+3.21289569e-01f,
+4.24858451e-01f,-3.13234180e-01f,+7.01505169e-02f,+2.85358906e-01f,-3.34203720e-01f,
+2.24913791e-01f,+1.38358459e-01f,-3.85542005e-01f,-3.78391445e-02f,+2.09020332e-01f,
+1.26560330e-01f,-4.41111237e-01f,-4.52309072e-01f,-4.67758864e-01f,-4.06576127e-01f,
-1.38701797e-01f,-1.12851895e-01f,+3.89729626e-02f,-2.05646440e-01f,+1.16234161e-02f,
-2.65377820e-01f,-2.74075508e-01f,+1.95710227e-01f,-4.93968844e-01f,-4.60825831e-01f,
+2.37329677e-02f,-1.27245262e-01f,-2.11194485e-01f,-2.66355686e-02f,+2.14917753e-02f,
+2.84523726e-01f,-2.85796374e-01f,-1.66259527e-01f,+1.08103916e-01f,-4.81314734e-02f,
-5.08021414e-01f,+3.93489540e-01f,-8.50115538e-01f,-9.87689495e-02f,+4.95739952e-02f,
-4.38407123e-01f,+3.85974012e-02f,+3.74100506e-01f,-1.64143398e-01f,-1.14869699e-01f,
-2.49701530e-01f,-1.49949774e-01f,+7.42270127e-02f,-2.55713105e-01f,-4.27525610e-01f,
-4.82715636e-01f,-3.69096458e-01f,-3.36491346e-01f,-3.63470674e-01f,+5.93767092e-02f,
-6.69514239e-01f,+1.33429542e-01f,+1.36482846e-02f,-1.92304268e-01f,-2.41469413e-01f,
-1.77850276e-01f,-4.47719038e-01f,+3.46667677e-01f,-2.70888776e-01f,-6.95785880e-01f,
+1.38909891e-01f,-1.49059698e-01f,+2.71507464e-02f,-4.34711456e-01f,+2.56776392e-01f,
-1.29964083e-01f,-2.65603215e-01f,-1.38291180e-01f,-2.15469331e-01f,-9.15227458e-02f,
-3.89478683e-01f,-7.90965021e-01f,-3.19261521e-01f,+1.16012603e-01f,-1.06196709e-01f,
-3.38335298e-02f,-1.82015985e-01f,-1.12046730e-02f,+3.38829100e-01f,-8.45902320e-03f,
-4.28998947e-01f,-1.30495891e-01f,-4.76635665e-01f,-8.42096806e-02f,-1.26853988e-01f,
+5.72293043e-01f,-7.49252215e-02f,-2.13465616e-01f,-1.60015181e-01f,+9.14667904e-01f,
-6.25879407e-01f,-1.36652887e-01f,-3.18643600e-01f,-9.90608856e-02f,-1.68338001e-01f,
-1.22408259e+00f,-2.17001945e-01f,+1.44006480e-02f,-6.30612254e-01f,+8.02547514e-01f,
-8.75115395e-03f,-1.24857771e+00f,-7.26330876e-02f,-5.47258019e-01f,-3.87733221e-01f,
-1.15241754e+00f,-5.87799549e-01f,-9.90579650e-02f,-8.67910683e-02f,-1.14260375e-01f,
-8.32222164e-01f,-5.57605803e-01f,+5.87380648e-01f,-3.15170705e-01f,+6.23175383e-01f,
+9.51664522e-02f,+4.34225760e-02f,-1.96688518e-01f,-1.12891659e-01f,+2.64805574e-02f,
-3.13412160e-01f,-2.95444578e-01f,+3.18205982e-01f,-4.71912086e-01f,-4.16614354e-01f,
-1.82239950e-01f,-5.53779721e-01f,-1.17145600e-02f,-1.45045340e-01f,-3.43852311e-01f,
+6.35300726e-02f,-1.26305372e-01f,-2.80559987e-01f,+4.09630269e-01f,-5.32470942e-02f,
-2.81556636e-01f,-4.02019083e-01f,-1.15561771e+00f,-3.59388322e-01f,-4.09887314e-01f,
-1.76119253e-01f,-1.30217135e-01f,-7.44560510e-02f,-2.54746020e-01f,+2.97463089e-02f,
-4.72866029e-01f,-5.01152992e-01f,+5.26848257e-01f,-1.96444586e-01f,-5.88560328e-02f,
-5.85248396e-02f,+4.49420437e-02f,-2.03493595e-01f,-3.77233103e-02f,-1.07009277e-01f,
+9.72501457e-01f,+4.08098847e-02f,-2.01781411e-02f,-3.67359698e-01f,-4.64054868e-02f,
-1.37748927e-01f,-5.71753047e-02f,-1.38953611e-01f,+3.05442572e-01f,+7.67706409e-02f,
-9.39843833e-01f,-1.16776869e-01f,-9.43720117e-02f,-3.20132673e-01f,+2.07006291e-01f,
+5.17872274e-02f,-2.28178188e-01f,-1.10316209e-01f,+9.23863351e-01f,-6.62853181e-01f,
+8.41231868e-02f,+3.59919786e-01f,+1.54088169e-01f,+1.43060982e-01f,-4.00645554e-01f,
-5.04895002e-02f,+4.10255492e-02f,-1.43525247e-02f,-1.93170533e-01f,+4.02325064e-01f,
+4.10601087e-02f,-4.40026730e-01f,+2.87996083e-01f,-1.29613727e-01f,-9.00567472e-02f,
-1.63406774e-01f,-7.26675466e-02f,-4.38669443e-01f,-2.01827630e-01f,-4.09383595e-01f,
-1.99367642e-01f,-2.92041242e-01f,+5.38669378e-02f,-1.95847824e-02f,-2.90014371e-02f,
-3.40218514e-01f,+2.30794266e-01f,-4.90344584e-01f,-2.21089035e-01f,-3.25529724e-01f,
-3.91414016e-01f,-3.55241299e-01f,+5.49499869e-01f,-7.39625156e-01f,-6.05871528e-02f,
-3.09441447e-01f,-5.62053919e-01f,-1.11783735e-01f,+3.53740335e-01f,-8.10636953e-02f,
-1.46681607e-01f,-7.79660165e-01f,-2.95799673e-01f,-6.71782076e-01f,+2.21200913e-01f,
-3.55595350e-01f,-7.80495405e-02f,-4.28258806e-01f,+4.06866372e-01f,+1.39637008e-01f,
-1.83521762e-01f,-1.98084101e-01f,-5.67071855e-01f,-2.32587472e-01f,-3.76210243e-01f,
-1.27265632e-01f,+9.35115442e-02f,-1.58088982e-01f,-1.42990202e-01f,-2.42672451e-02f,
-2.46361241e-01f,-5.24443155e-03f,+6.28393233e-01f,+5.17894149e-01f,+4.92115617e-01f,
+4.56082731e-01f,+3.11780721e-01f,-7.27419704e-02f,-7.72483766e-01f,-6.89394623e-02f,
-5.21561384e-01f,-2.21569672e-01f,-3.64126116e-02f,+6.41598254e-02f,+3.21008593e-01f,
-2.15579197e-01f,-2.46561810e-01f,+6.39713556e-02f,-1.13294177e-01f,+2.34983638e-01f,
-5.59959076e-02f,-1.97231874e-01f,-2.41621062e-01f,-2.70617127e-01f,-1.04773954e-01f,
-1.07012011e-01f,-3.22009921e-02f,+3.37342471e-01f,-6.13453351e-02f,-9.46594104e-02f,
+5.21497965e-01f,-4.02871490e-01f,-3.09518516e-01f,+3.15243304e-02f,-6.80546582e-01f,
-4.15807337e-01f,+1.83530480e-01f,-7.15716258e-02f,+2.24626735e-02f,-9.40441862e-02f,
-8.26704741e-01f,-1.63208708e-01f,-1.38733998e-01f,+1.31876066e-01f,-6.39142469e-02f,
+1.27149388e-01f,-2.70054638e-01f,-1.30585572e-02f,+3.50899875e-01f,-1.35990143e-01f,
-2.28019394e-02f,-6.18504584e-01f,-2.13728845e-01f,+5.60988784e-01f,-1.49765372e-01f,
-5.42770863e-01f,+1.24377243e-01f,-1.00200713e-01f,-4.61052835e-01f,-2.31746510e-01f,
-3.00314456e-01f,-3.48822735e-02f,+6.12974584e-01f,-9.42222252e-02f,+5.69434725e-02f,
-2.66415238e-01f,-4.72364482e-03f,-5.49475670e-01f,-5.54990172e-01f,-4.49870378e-01f,
+9.95626986e-01f,-4.87404704e-01f,+3.77017148e-02f,-2.11144224e-01f,-1.53418437e-01f,
-7.11274073e-02f,+4.31496985e-02f,+9.79131579e-01f,+1.72205120e-01f,-3.15543383e-01f,
+5.69454670e-01f,+1.12656765e-02f,-2.20020279e-01f,-1.28729895e-01f,-3.28798950e-01f,
+7.30963945e-02f,+2.09272094e-02f,-6.70581982e-02f,-4.66804296e-01f,-2.42308885e-01f,
+2.18924284e-01f,+5.20355165e-01f,-3.01435292e-01f,-3.15488912e-02f,-2.12782934e-01f,
-7.30810881e-01f,-4.76556923e-03f,-1.36919647e-01f,-6.33287549e-01f,+2.37664029e-01f,
-1.90181702e-01f,+4.98035789e-01f,-8.79342929e-02f,-3.79109494e-02f,-9.55331028e-02f,
-1.01507053e-01f,-4.13001239e-01f,-3.47392559e-01f,-6.15861416e-02f,-9.77409109e-02f,
-5.27971759e-02f,-1.05898129e-03f,-3.75847757e-01f,-2.28782162e-01f,-9.46311951e-02f,
+2.83329159e-01f,+7.32120946e-02f,-2.51143605e-01f,-2.26238802e-01f,+2.85319537e-01f,
-2.89056543e-02f,+2.12869793e-01f,-2.29088202e-01f,-4.25599366e-01f,-3.57296437e-01f,
-2.61994690e-01f,-2.51286894e-01f,-2.63208359e-01f,+2.56048869e-02f,+5.60954362e-02f,
+2.49787882e-01f,+5.75746953e-01f,-1.25639990e-01f,-9.39887390e-02f,-1.05701983e+00f,
-1.09764300e-01f,+1.50214016e-01f,-3.79956573e-01f,-3.91258150e-01f,-6.47077709e-02f,
-1.42028667e-02f,+2.17617750e-01f,-6.45072341e-01f,-6.55921176e-02f,+1.84533820e-02f,
-2.29716808e-01f,-1.83847826e-02f,+4.01519716e-01f,+1.79240495e-01f,+4.37826782e-01f,
-1.52304307e-01f,-2.56979406e-01f,-5.14274776e-01f,-3.53269607e-01f,-2.29189456e-01f,
-5.30951768e-02f,-4.25644815e-01f,-1.72383130e-01f,+3.57395560e-01f,-2.77369134e-02f,
+8.16801712e-02f,-2.55735964e-01f,+5.54847792e-02f,-1.40112489e-01f,-2.26387475e-02f,
-3.50200646e-02f,+2.39230648e-01f,-7.86807165e-02f,-2.80101597e-01f,-1.65890262e-01f,
+4.69907910e-01f,-1.60142258e-01f,-2.26623714e-01f,-4.88877118e-01f,+2.86780775e-01f,
-8.45293179e-02f,-1.94650725e-01f,-7.80644715e-02f,-3.39998960e-01f,+3.78419906e-01f,
+6.27609313e-01f,-1.32389233e-01f,-2.80127645e-01f,-3.41460973e-01f,+2.50563473e-01f,
-3.93790632e-01f,-2.23310694e-01f,-3.68489772e-01f,+3.36052984e-01f,-5.27585089e-01f,
-9.58529234e-01f,-5.93465939e-02f,-1.26898453e-01f,-2.75758862e-01f,-1.26899645e-01f,
+1.53834864e-01f,-6.29682481e-01f,-4.12934303e-01f,-8.34661365e-01f,-3.29180568e-01f,
+4.79195207e-01f,-4.46367785e-02f,+4.95178521e-01f,-9.20247957e-02f,-4.00965586e-02f,
+1.39155000e-01f,+2.60465175e-01f,+2.19919488e-01f,+1.05388075e-01f,-7.39303455e-02f,
-2.29591765e-02f,-6.96225613e-02f,-2.67849118e-02f,-4.48588729e-01f,-3.65747511e-01f,
-5.06936014e-01f,-2.21734837e-01f,-6.48895800e-02f,-5.58166564e-01f,-2.43950039e-01f,
+3.22994262e-01f,-4.35352117e-01f,+4.83411312e-01f,-5.76883793e-01f,-3.19056362e-01f,
-2.56125450e-01f,+1.56865731e-01f,-3.13581973e-01f,-2.77228773e-01f,+8.41964930e-02f,
+1.02024004e-01f,-2.76000112e-01f,+3.14198062e-02f,-2.02166155e-01f,-1.47353977e-01f,
-1.47762150e-01f,-3.58061343e-02f,-2.67330676e-01f,+1.62099034e-01f,-9.95397449e-01f,
-2.06284747e-01f,-2.23726213e-01f,+7.37936422e-02f,-1.20259494e-01f,-3.11898366e-02f,
-3.16263914e-01f,+6.58001155e-02f,-3.41945030e-02f,+3.95245910e-01f,+1.78177997e-01f,
-3.76550108e-01f,-9.37206205e-03f,+1.42844483e-01f,-7.16482624e-02f,-4.58895825e-02f,
-1.58118695e-01f,-1.56562090e-01f,-3.89016092e-01f,-3.06965448e-02f,+1.67424873e-01f,
+3.89623642e-01f,-5.62963560e-02f,+3.82796198e-01f,-5.10235369e-01f,-8.51851225e-01f,
+2.34969839e-01f,-1.22899421e-01f,-1.72385693e-01f,-1.37162417e-01f,+2.97678471e-01f,
-5.08956313e-01f,-1.44781079e-02f,-7.11111650e-02f,-1.58189222e-01f,-1.76645860e-01f,
+2.76241332e-01f,-4.42942930e-03f,+3.45769554e-01f,-6.66560084e-02f,-6.18546069e-01f,
-5.33586703e-02f,-2.93974578e-01f,-3.57998103e-01f,-4.07307148e-01f,-5.97330809e-01f,
-3.60283107e-01f,-2.29618385e-01f,-3.19657832e-01f,-1.72916636e-01f,-8.86702761e-02f,
-1.53554052e-01f,-7.00032115e-01f,-3.38749617e-01f,+1.68180130e-02f,+1.04674459e-01f,
-1.46955833e-01f,-3.37115414e-02f,+7.70262405e-02f,+3.42718035e-01f,-2.36749183e-02f,
-9.62363258e-02f,+2.30454713e-01f,+1.69000059e-01f,+3.36287655e-02f,-3.24766338e-01f,
-1.83599129e-01f,+5.49290776e-02f,+6.11304224e-01f,-3.00186187e-01f,-8.88806060e-02f,
-1.51499450e-01f,-9.04530063e-02f,-6.07860208e-01f,-1.39568388e-01f,-2.83846319e-01f,
-3.82855982e-01f,-1.85614929e-01f,-1.88766360e-01f,-8.56746361e-02f,-4.13157731e-01f,
-3.87485355e-01f,-9.76769924e-02f,-3.48022550e-01f,-1.98636085e-01f,-4.86072332e-01f,
-6.09937906e-01f,-4.70334172e-01f,-4.76231426e-01f,-2.00792268e-01f,-3.10386896e-01f,
+3.65426928e-01f,-2.19566658e-01f,-2.65533999e-02f,+8.23364019e-01f,-3.46885324e-01f,
-6.26807153e-01f,-2.56160110e-01f,-3.60714346e-01f,-1.72526687e-01f,-5.02900779e-01f,
+2.36954495e-01f,-1.12507008e-01f,-2.32928261e-01f,-1.33230448e-01f,+6.92479014e-02f,
+1.42738983e-01f,-1.77958414e-01f,-2.14152828e-01f,-9.69860077e-01f,-3.80522251e-01f,
+1.03343800e-01f,+2.70013571e-01f,-1.20631106e-01f,+9.07174684e-03f,-1.83506116e-01f,
+2.28637502e-01f,-2.53019452e-01f,-1.04066238e-01f,-4.37906235e-01f,-3.34347665e-01f,
+5.08865006e-02f,-3.59891623e-01f,+1.29910856e-01f,+3.07752360e-02f,-1.06934719e-01f,
-4.78634566e-01f,-2.19926178e-01f,-3.55646610e-01f,-5.07806301e-01f,-2.36365467e-01f,
-1.05393946e-01f,+3.55330586e-01f,+6.38059497e-01f,-3.57531726e-01f,-1.90061405e-01f,
-9.99372602e-02f,+2.60472554e-03f,-1.39342770e-01f,+8.77344728e-01f,-1.21251740e-01f,
+2.01766759e-01f,-3.40235472e-01f,-7.88784206e-01f,-5.40937066e-01f,-4.10795510e-01f,
-2.82720625e-01f,-5.03220916e-01f,-2.36193806e-01f,+9.44324657e-02f,-4.03742373e-01f,
-7.55350471e-01f,-6.80022035e-03f,-7.72797838e-02f,-3.44615966e-01f,-1.72162980e-01f,
+1.17902547e-01f,-1.52480078e-03f,-5.24082243e-01f,-7.72685468e-01f,-1.75293252e-01f,
-3.07025254e-01f,-1.04840636e-01f,-1.88460529e-01f,-1.80126414e-01f,-8.47912356e-02f,
-1.33069381e-01f,-1.89620227e-01f,-8.31805244e-02f,-2.49313980e-01f,-3.97784889e-01f,
-3.48193534e-02f,+6.21970892e-02f,-8.41092944e-01f,-2.88513094e-01f,+5.71612537e-01f,
-5.29462218e-01f,+8.14762781e-04f,-2.12326571e-01f,+2.11134046e-01f,-8.57242495e-02f,
-1.49399668e-01f,-3.00792009e-01f,-4.41932857e-01f,-1.55369818e-01f,+3.89722228e-01f,
+2.97378656e-02f,-4.85233754e-01f,+5.31823114e-02f,-1.79855317e-01f,+1.67048633e-01f,
-4.37962636e-02f,-1.60199970e-01f,-1.46418259e-01f,-2.78735489e-01f,-2.09700927e-01f,
-1.20392072e+00f,+4.74546462e-01f,-2.58558214e-01f,-2.23724917e-01f,+3.12776655e-01f,
-4.62876797e-01f,-7.38161504e-02f,-3.50919515e-01f,-4.15459760e-02f,+6.79771066e-01f,
-2.68661767e-01f,-3.00637573e-01f,-2.02289954e-01f,-1.96734115e-01f,-3.69898170e-01f,
+2.18609795e-01f,+2.71684498e-01f,+2.45029017e-01f,+6.46149695e-01f,-3.91084373e-01f,
-2.08741859e-01f,-2.52933949e-01f,+4.04772982e-02f,-3.69718641e-01f,-2.43180513e-01f,
-1.92771032e-01f,+4.68406901e-02f,-1.83239505e-01f,-4.53689128e-01f,-6.51155636e-02f,
-4.15446758e-01f,-9.04477462e-02f,-4.91985679e-01f,+4.19148197e-03f,-2.06912592e-01f,
-6.94796592e-02f,-1.55414581e-01f,+1.63149714e-01f,-9.62368250e-02f,+2.24714223e-02f,
-1.43373087e-01f,-5.23518860e-01f,-4.71330583e-02f,+8.55920464e-02f,-5.84526002e-01f,
-3.08643758e-01f,-1.70073330e-01f,-1.07765287e-01f,+4.40132052e-01f,-2.04817519e-01f,
-3.46182972e-01f,-4.60314929e-01f,-7.58337379e-01f,+1.40997693e-01f,-2.61222124e-01f,
+1.58691958e-01f,-2.18240887e-01f,-2.18343928e-01f,+2.60764156e-02f,+4.25243331e-03f,
-1.73376128e-01f,-1.12700753e-03f,-8.99861678e-02f,+1.34906068e-01f,-4.75067496e-01f,
-2.74469554e-01f,-1.51027396e-01f,-8.88032541e-02f,-3.98271799e-01f,-2.54313558e-01f,
-1.36101380e-01f,-2.45931804e-01f,-1.68039441e-01f,-6.34584874e-02f,+1.02609396e-01f,
-2.17353955e-01f,-7.65270174e-01f,+1.78914948e-03f,-1.24145404e-01f,+1.58084989e-01f,
-3.37770343e-01f,-4.66602206e-01f,+5.56945980e-01f,+6.85839355e-02f,-2.38724157e-01f,
-7.90161014e-01f,+3.51419561e-02f,-2.44728848e-01f,-8.00167546e-02f,-5.06153703e-02f,
+2.90357172e-01f,-2.56784201e-01f,+1.17090449e-01f,+2.69142628e-01f,-3.34321499e-01f,
-2.29402080e-01f,-2.76797384e-01f,+1.80724412e-01f,+2.55941093e-01f,-2.93052733e-01f,
-2.05535784e-01f,-7.31864035e-01f,+1.26288846e-01f,-6.12824298e-02f,-1.41182631e-01f,
+1.78500891e-01f,-3.06302100e-01f,-3.69883887e-02f,-4.59185898e-01f,-4.44597602e-02f,
-1.12811103e-01f,+4.50216621e-01f,-1.80980489e-02f,+5.24913967e-01f,-3.18623453e-01f,
+4.80253845e-01f,+4.77484822e-01f,-6.14988863e-01f,-1.32760450e-01f,-1.35096937e-01f,
-1.39621988e-01f,-1.69496238e-01f,-7.55820632e-01f,-2.92785078e-01f,+7.39277303e-01f,
-5.88419773e-02f,-8.27737376e-02f,-1.71064526e-01f,-3.26130301e-01f,-1.37665682e-02f,
-3.48512799e-01f,-1.47559062e-01f,-3.07887346e-01f,-1.64966747e-01f,-3.15374970e-01f,
+3.75303566e-01f,-3.97810221e-01f,-7.70987749e-01f,+3.00999701e-01f,-1.69752285e-01f,
-1.54746130e-01f,-9.24520046e-02f,-2.06137836e-01f,-3.32913190e-01f,-7.59418428e-01f,
-2.56456256e-01f,-8.01005721e-01f,-4.52219009e-01f,-6.19567871e-01f,-8.28610361e-01f,
-1.28959492e-01f,-2.08663523e-01f,+3.90301161e-02f,+6.59299642e-02f,-3.06468576e-01f,
-3.25747490e-01f,+1.60323143e-01f,+5.42056143e-01f,-1.99790314e-01f,-1.98666025e-02f,
+4.50219989e-01f,-5.44772968e-02f,-5.82567096e-01f,+8.66098329e-02f,-1.87202960e-01f,
-5.20970225e-01f,-1.79721594e-01f,+2.88929790e-01f,-2.22315248e-02f,-1.83229856e-02f,
-3.36280733e-01f,-7.71267712e-01f,-7.24565268e-01f,-4.04293127e-02f,-1.87465280e-01f,
-1.59433812e-01f,+1.95442542e-01f,-2.55686671e-01f,+8.60012621e-02f,+4.25415784e-02f,
+2.78280795e-01f,-1.53393418e-01f,-2.12054491e-01f,+7.32800007e-01f,-1.31714016e-01f,
-8.68499577e-02f,-3.27495754e-01f,+5.25792539e-01f,+4.06865150e-01f,-6.80752277e-01f,
-2.12978393e-01f,-4.12179128e-04f,+3.04606438e-01f,+2.71845371e-01f,-1.79762721e-01f,
-2.00856432e-01f,-4.46252048e-01f,-1.16944369e-02f,-8.61551687e-02f,+3.55544277e-02f,
+5.59472479e-03f,-9.65429321e-02f,-2.10124284e-01f,-2.05875561e-01f,+1.13351792e-01f,
+2.02728674e-01f,+1.66182548e-01f,-1.94295526e-01f,-3.82878900e-01f,-2.08305418e-01f,
+4.43506271e-01f,-1.03175390e+00f,-7.12078363e-02f,-5.36832273e-01f,-2.98653096e-01f,
+7.99193233e-02f,-2.54885077e-01f,-1.93506524e-01f,+1.00306541e-01f,-6.31014109e-01f,
-1.67268708e-01f,+3.30945030e-02f,-3.17835003e-01f,-6.78687245e-02f,+2.17581064e-01f,
-5.53622484e-01f,-8.72237861e-01f,-1.42714411e-01f,-1.34564713e-01f,-3.17678601e-01f,
+8.93656313e-02f,+6.43112957e-02f,-8.90724137e-02f,-2.96130449e-01f,+1.46836683e-01f,
-3.50887239e-01f,-2.47198358e-01f,-1.17962837e-01f,+8.44040420e-03f,-3.12800825e-01f,
-4.77632741e-03f,+2.31456578e-01f,+7.75102153e-02f,-8.26303810e-02f,+5.10307355e-03f,
+2.81056494e-01f,-1.77822337e-01f,-2.79523283e-02f,+1.12712599e-01f,-1.50253177e-01f,
-1.20639670e+00f,+4.35813189e-01f,-3.21831971e-01f,-1.30247355e-01f,+8.16914365e-02f,
-2.80295104e-01f,-1.22364908e-01f,-4.21520323e-01f,+6.18631303e-01f,+7.42124170e-02f,
-2.54188746e-01f,+4.40953612e-01f,-1.81627139e-01f,-1.03462763e-01f,-3.08322161e-01f,
-6.51794553e-01f,-7.31119737e-02f,-1.84203923e-01f,-3.76328111e-01f,-1.38451327e-02f,
-2.72200763e-01f,+3.40902470e-02f,-2.03008100e-01f,-2.54106343e-01f,-4.22481239e-01f,
-2.86988199e-01f,+9.80459824e-02f,-1.17029452e+00f,-2.27171347e-01f,-2.33176723e-01f,
-1.87342897e-01f,-1.59381539e-01f,-2.10184380e-01f,-8.37200359e-02f,+1.42460927e-01f,
-4.60767806e-01f,-3.09865236e-01f,-1.33082286e-01f,-2.69218415e-01f,+1.26624689e-01f,
+6.37516022e-01f,-1.39733925e-01f,-2.07221135e-04f,+5.25326282e-02f,-4.63903099e-02f,
+1.00403931e-02f,-8.95121619e-02f,+1.00727797e-01f,-1.63627416e-01f,+1.81668270e-02f,
-5.82545400e-01f,+1.14963800e-01f,-2.38940772e-02f,-7.50815034e-01f,+2.49354318e-02f,
-1.01979285e-01f,+1.68779597e-01f,-4.51443702e-01f,+7.38445669e-02f,-2.11188272e-01f,
-1.55712947e-01f,-1.47330001e-01f,+6.35266453e-02f,-1.30118662e-03f,+5.14881462e-02f,
+4.64171976e-01f,-4.54964519e-01f,+3.78696471e-01f,-1.32085502e-01f,-1.16107062e-01f,
-3.31375927e-01f,-3.91531140e-01f,-9.69149917e-02f,-1.92852303e-01f,-2.94528961e-01f,
-4.85867649e-01f,-1.56778634e-01f,-2.78111901e-02f,-1.11849003e-01f,+2.30586991e-01f,
-2.43779421e-01f,+6.62085354e-01f,-4.40969825e-01f,-1.99622601e-01f,+1.16374448e-01f,
+3.40290517e-01f,-2.05428764e-01f,-6.07583113e-02f,+4.04677242e-01f,+5.32008410e-01f,
-1.75606534e-01f,-2.52862349e-02f,-1.03867508e-01f,+2.36978367e-01f,-1.80703163e-01f,
-5.05862944e-02f,-2.55389899e-01f,-4.93980706e-01f,-2.38053381e-01f,+5.56581058e-02f,
-9.43616703e-02f,-6.79901615e-02f,-1.76560640e-01f,+1.37458192e-02f,+3.52324784e-01f,
-2.43414581e-01f,-1.60750926e-01f,-9.79782045e-02f,+1.15347346e-02f,-2.06635818e-01f,
+6.59776554e-02f,-3.09732966e-02f,+1.03016317e-01f,-1.80724442e-01f,-1.65694475e-01f,
-3.45582962e-01f,-5.01152575e-02f,+6.69801831e-02f,-6.68578446e-01f,-3.69841218e-01f,
-4.61351842e-01f,+5.34183621e-01f,-2.18836099e-01f,-1.32459551e-01f,-2.05385014e-01f,
+4.60476458e-01f,-7.08431005e-02f,-2.22800493e-01f,-5.47395349e-01f,+6.15424454e-01f,
-2.72356775e-02f,-2.99699455e-01f,-2.34725550e-01f,-9.05045941e-02f,-1.01562405e+00f,
+1.31110474e-01f,-6.80666327e-01f,+7.80918496e-03f,-5.64992011e-01f,-4.88726467e-01f,
-1.93773553e-01f,-2.48176575e-01f,-1.35350764e-01f,-2.83803165e-01f,+2.88818236e-02f,
-1.05993181e-01f,+9.28889960e-03f,-1.72685623e-01f,-1.89145088e-01f,-6.22217298e-01f,
+1.53616264e-01f,-4.44210708e-01f,-3.59555304e-01f,-3.14558558e-02f,-2.47823134e-01f,
-2.54404843e-01f,+1.75844714e-01f,-6.60183668e-01f,-6.10461421e-02f,-1.93570733e-01f,
+4.60081510e-02f,+2.92900145e-01f,-8.65851641e-02f,+6.07528269e-01f,-3.37230295e-01f,
-8.43203962e-02f,-5.71322322e-01f,-3.57552916e-01f,-6.10729218e-01f,-3.05645347e-01f,
-3.06474984e-01f,-1.71098337e-01f,+6.28163281e-04f,-7.88023174e-02f,-9.83352140e-02f,
+8.02445337e-02f,-2.42037490e-01f,-1.81422517e-01f,-3.95702600e-01f,-2.77011812e-01f,
-3.38091850e-01f,+3.75903361e-02f,+1.69368878e-01f,-7.24868953e-01f,-6.50582686e-02f,
-7.04796910e-02f,-2.73999780e-01f,-4.05295044e-01f,-3.71338204e-02f,+3.30832750e-01f,
-2.69532233e-01f,-1.25545755e-01f,-4.67535496e-01f,+5.44903576e-01f,-8.55686486e-01f,
-4.74103004e-01f,-4.35338944e-01f,-2.59089619e-01f,-7.52852857e-01f,-3.05631578e-01f,
-6.49072468e-01f,-1.11250646e-01f,+1.90986355e-03f,+4.53744203e-01f,-4.09398615e-01f,
+5.40199783e-03f,-5.49310483e-02f,+2.01866344e-01f,-6.71108440e-02f,-1.27074197e-01f,
-3.07845443e-01f,-5.96353747e-02f,-2.38377199e-01f,-1.84360474e-01f,-7.43604839e-01f,
-3.50074619e-01f,-2.30322093e-01f,+9.86260250e-02f,+7.21471429e-01f,-4.09134656e-01f,
-1.98010728e-01f,-6.00651443e-01f,-8.62730816e-02f,-6.55426085e-02f,-4.32099909e-01f,
+2.71818805e-02f,-3.85065898e-02f,+4.61064637e-01f,-3.50548397e-03f,-3.10585089e-02f,
+2.79350072e-01f,-3.42493266e-01f,+9.89575684e-02f,-9.11156833e-02f,-1.38200119e-01f,
+5.90972066e-01f,+8.27046335e-02f,+1.25149831e-01f,-1.47177279e-01f,-7.01081932e-01f,
-2.45159745e-01f,-8.24354470e-01f,-5.51890254e-01f,-1.45038292e-01f,+1.19830385e-01f,
-1.18411571e-01f,-7.23238587e-01f,+8.98409665e-01f,+9.44512431e-03f,-4.57635969e-01f,
-4.26088601e-01f,-1.28954366e-01f,-2.73744076e-01f,-2.76839346e-01f,-1.23965941e-01f,
-1.61419600e-01f,-1.70342609e-01f,+2.12579608e-01f,+1.67075783e-01f,+2.74668068e-01f,
-2.18481302e-01f,-2.24003151e-01f,+1.02744356e-01f,-3.58721197e-01f,+3.03666681e-01f,
-2.55692266e-02f,-1.14666671e-01f,-3.56381923e-01f,-3.04483473e-01f,+9.18014884e-01f,
-2.10494936e-01f,+1.59438476e-01f,+1.07336119e-01f,+2.02033609e-01f,-3.63669127e-01f,
-1.97385456e-02f,+5.10502383e-02f,-4.68048155e-02f,-2.48762399e-01f,+3.04228961e-01f,
-8.45155343e-02f,-4.37217876e-02f,+4.81356174e-01f,+5.94421446e-01f,+2.03398839e-01f,
-2.23163694e-01f,+6.76325411e-02f,+3.55332866e-02f,+3.38222012e-02f,-2.37314142e-02f,
-3.59832942e-01f,+2.34219164e-01f,-4.15737122e-01f,-1.05517805e-02f,-3.97849411e-01f,
-5.13096042e-02f,-5.11499584e-01f,-1.98255539e-01f,+3.43676656e-01f,-4.30737883e-01f,
-3.79096806e-01f,-1.15212925e-01f,-1.02090396e-01f,-2.12975278e-01f,-1.00458488e-01f,
+2.51923770e-01f,-5.42236567e-01f,-3.07745606e-01f,-1.99496940e-01f,-3.67759049e-01f,
+1.10073283e-01f,+9.35560465e-02f,+4.91193771e-01f,-8.90456259e-01f,-3.05448592e-01f,
-3.83036524e-01f,-1.92147672e-01f,+1.18850602e-03f,-1.81574553e-01f,+6.54622465e-02f,
-4.81127203e-01f,-3.10492784e-01f,-1.04637921e+00f,-2.77442843e-01f,+9.10700187e-02f,
+6.73100203e-02f,+5.99136472e-01f,+2.25552097e-01f,+4.18285787e-01f,-2.00344071e-01f,
-1.49270788e-01f,-1.15432553e-01f,-6.40352219e-02f,+1.12178095e-01f,-6.23465106e-02f,
-1.03485692e+00f,-8.07631686e-02f,+4.59208608e-01f,-9.72814634e-02f,+4.84814532e-02f,
-2.06040293e-01f,+1.01042211e-01f,-5.04607260e-01f,-2.17171609e-01f,+4.02372181e-01f,
+2.29776159e-01f,-5.11789203e-01f,+6.33444548e-01f,-4.47955906e-01f,-1.70007080e-01f,
-1.24253266e-01f,+1.36955725e-02f,+1.05510965e-01f,-4.08107251e-01f,-1.36670902e-01f,
+1.38927996e-01f,-2.51249790e-01f,-1.59190938e-01f,-5.44690609e-01f,+1.84714898e-01f,
-4.18171972e-01f,-1.05045654e-01f,-4.23443317e-01f,-3.82284731e-01f,-3.89132708e-01f,
-2.38187924e-01f,-2.58330584e-01f,-4.72683534e-02f,-1.20599724e-01f,-1.75558239e-01f,
-7.13833869e-01f,-1.82420015e-03f,+2.33306699e-02f,+3.62200767e-01f,+5.18601000e-01f,
+3.16094100e-01f,+2.56544501e-01f,+1.59476489e-01f,+4.12080251e-02f,+1.71015531e-01f,
+6.18257150e-02f,-5.15769660e-01f,+1.21532008e-02f,-1.07008025e-01f,-6.47309542e-01f,
-2.08721459e-01f,+2.67285784e-03f,-4.31063920e-01f,+7.64309764e-02f,-7.70315230e-02f,
+4.69322279e-02f,-1.48387507e-01f,+2.23760307e-01f,-4.07205224e-02f,-5.66831112e-01f,
-2.50036478e-01f,-4.14635651e-02f,-1.13368772e-01f,-1.13878019e-01f,+3.50727551e-02f,
-3.02500695e-01f,-9.95619036e-03f,-5.73965073e-01f,-9.91478413e-02f,+3.39011126e-03f,
+7.96372056e-01f,+3.97432119e-01f,-2.50255913e-01f,-4.32641804e-01f,-1.98085681e-01f,
-6.69710487e-02f,+2.33521238e-01f,-2.64028907e-01f,+3.86682339e-03f,-2.35032603e-01f,
-4.14983071e-02f,+4.90258336e-01f,-4.82710674e-02f,-4.09477530e-03f,-1.11672029e-01f,
-4.60653156e-01f,+6.89157695e-02f,+2.23122954e-01f,-5.18308282e-01f,+7.04010725e-01f,
-2.62598265e-02f,-1.69953704e-01f,-5.49138546e-01f,-3.04820061e-01f,-3.16693991e-01f,
-9.55842435e-02f,-2.86956597e-02f,-4.84234720e-01f,-4.20302272e-01f,-5.00550151e-01f,
-2.30068132e-01f,-3.61888677e-01f,-1.07321747e-01f,-4.49105054e-01f,+1.46887124e-01f,
-6.91176802e-02f,+3.71586144e-01f,+2.73556501e-01f,+1.70971043e-02f,-4.47639912e-01f,
+1.13789402e-01f,-8.27299878e-02f,+2.72084237e-03f,-8.67608041e-02f,+2.03785375e-01f,
+8.00885633e-02f,-1.16622734e+00f,+1.11290947e-01f,-3.83950323e-02f,-2.10609660e-01f,
-7.47282282e-02f,-8.00475627e-02f,+1.19254179e-01f,+1.42046839e-01f,-2.18060479e-01f,
-6.81185499e-02f,-1.34105086e-01f,+1.06632322e-01f,-3.59014124e-01f,+1.01536125e-01f,
-5.48466802e-01f,-2.47821629e-01f,-2.09574819e-01f,+2.62380242e-02f,-2.16034248e-01f,
+2.61541754e-01f,+5.52198946e-01f,-1.27671016e-02f,-2.60233015e-01f,+3.08575258e-02f,
-6.48230553e-01f,-1.73423693e-01f,-3.02077264e-01f,-2.04211295e-01f,+1.57818012e-02f,
+5.03525734e-01f,+4.68852408e-02f,+6.95538521e-01f,+8.91682655e-02f,-1.32607833e-01f,
-9.11560953e-02f,-1.56791940e-01f,+1.85064331e-01f,-7.91155577e-01f,-2.51353979e-01f,
-6.73075859e-03f,}; 
k2c_tensor conv1d_4_kernel = { &conv1d_4_kernel_array[0], 3, 1536, {  3,16,32, 1, 1 } }; 
float conv1d_4_bias_array[32] = {
-9.14504826e-02f,-1.88453287e-01f,-3.59486192e-01f,-2.85664555e-02f,-2.33456224e-01f,
-3.55653763e-01f,-1.18016250e-01f,-2.97097236e-01f,-2.43486255e-01f,-2.97070891e-01f,
-4.79332447e-01f,-2.98315138e-01f,-3.75080734e-01f,+1.18948802e-01f,-3.31431746e-01f,
-3.13144594e-01f,-5.35024405e-01f,-1.86156973e-01f,+4.56349691e-04f,-1.56391189e-01f,
-1.42962843e-01f,-3.25950742e-01f,-2.45956555e-01f,-2.51115441e-01f,-6.05387747e-01f,
-2.30455831e-01f,-1.78390369e-01f,-1.79210857e-01f,-2.36608088e-01f,-4.01458830e-01f,
-1.89288169e-01f,-4.19374853e-01f,}; 
k2c_tensor conv1d_4_bias = { &conv1d_4_bias_array[0], 1, 32, { 32, 1, 1, 1, 1 } }; 

 
size_t max_pooling1d_4_stride = 2; 
size_t max_pooling1d_4_pool_size = 2; 
float keras_tensor_86_output_array[160] = {0}; 
k2c_tensor keras_tensor_86_output = { &keras_tensor_86_output_array[0], 2, 160, {  5,32, 1, 1, 1 } }; 
float max_pooling1d_4_padded_input_array[320] = {0}; 
k2c_tensor max_pooling1d_4_padded_input = { &max_pooling1d_4_padded_input_array[0], 2, 320, { 10,32, 1, 1, 1 } }; 
size_t max_pooling1d_4_pad[2] = {0,0}; 
float max_pooling1d_4_fill = -HUGE_VALF; 


size_t conv1d_5_stride = 1; 
size_t conv1d_5_dilation = 1; 
float keras_tensor_87_output_array[320] = {0}; 
k2c_tensor keras_tensor_87_output = { &keras_tensor_87_output_array[0], 2, 320, {  5,64, 1, 1, 1 } }; 
float conv1d_5_padded_input_array[224] = {0}; 
k2c_tensor conv1d_5_padded_input = { &conv1d_5_padded_input_array[0], 2, 224, {  7,32, 1, 1, 1 } }; 
size_t conv1d_5_pad[2] = {1,1}; 
float conv1d_5_fill = 0.0f; 
float conv1d_5_kernel_array[6144] = {
-1.78656414e-01f,+1.18638813e-01f,-2.95937985e-01f,+5.13762295e-01f,+1.20302990e-01f,
-1.57132253e-01f,-9.09048438e-01f,+8.04026201e-02f,+3.77922833e-01f,-1.30762696e-01f,
-2.64709592e-01f,-2.38112539e-01f,-9.51064050e-01f,+2.49589205e-01f,+2.21813440e-01f,
-1.13588423e-02f,-2.67787814e-01f,-3.20823759e-01f,+3.98875773e-01f,-3.59628379e-01f,
-4.26896572e-01f,-1.08755313e-01f,-1.82797194e-01f,-3.78732055e-01f,+2.23173827e-01f,
-2.45893389e-01f,-4.15754110e-01f,-3.57218802e-01f,-1.58234909e-01f,-6.41777217e-01f,
+4.08039719e-01f,-3.76685522e-02f,+3.97244334e-01f,-1.29765302e-01f,-1.25680670e-01f,
-5.35407305e-01f,+2.01991443e-02f,-2.62889042e-02f,-2.74502069e-01f,+3.46440583e-01f,
-5.80972910e-01f,-1.00252055e-01f,+6.97676465e-02f,-1.31381810e-01f,+2.85490692e-01f,
-5.53580001e-03f,+4.59441915e-02f,-3.31437588e-01f,+3.67104530e-01f,-6.87360227e-01f,
+2.31723431e-02f,+4.48812723e-01f,-1.47200406e-01f,+3.24252099e-01f,-3.42522115e-01f,
-2.85828114e-01f,-6.42596304e-01f,-5.16469590e-02f,-5.20526469e-01f,+2.14847937e-01f,
-4.51928169e-01f,-1.43064037e-01f,+4.92507309e-01f,+5.72701812e-01f,-1.29850253e-01f,
-3.04130130e-02f,-9.55447853e-02f,-9.63997245e-02f,+9.01109204e-02f,+7.35426471e-02f,
+4.19712737e-02f,-1.48933262e-01f,-6.34209216e-02f,+7.86703676e-02f,-1.62746936e-01f,
-1.37988001e-01f,-4.38602492e-02f,-3.63621935e-02f,-7.56600648e-02f,-2.08759934e-01f,
-1.53429195e-01f,+1.34665191e-01f,-1.60285772e-03f,-5.65822683e-02f,+9.17063057e-02f,
+6.84761778e-02f,-2.20700666e-01f,-5.84979057e-02f,-6.13664091e-02f,+1.48054451e-01f,
+3.03824782e-01f,+6.38022274e-02f,-3.48810628e-02f,-1.10513605e-01f,+1.01889782e-01f,
+9.98835359e-03f,+1.45448774e-01f,+7.71744028e-02f,+2.39678383e-01f,-8.40080029e-04f,
-2.05326639e-02f,+6.52327091e-02f,+1.29740864e-01f,-3.15361232e-01f,+3.21019813e-02f,
+9.22902897e-02f,+6.06174767e-02f,-1.60258368e-01f,-1.05191581e-01f,+1.27381533e-01f,
+2.42378414e-02f,-6.84972852e-02f,-2.16183476e-02f,+3.46915610e-02f,+5.05820811e-02f,
+1.70300558e-01f,+2.94590760e-02f,+1.24022380e-01f,-3.90907004e-02f,-2.02298805e-01f,
+1.08330501e-02f,-3.66746336e-01f,-2.60489851e-01f,+1.83777928e-01f,+1.27750143e-01f,
+5.39809689e-02f,+1.98046356e-01f,-7.65643120e-02f,-3.54989767e-02f,+6.64849460e-01f,
-1.89270079e-01f,-1.94076076e-01f,+1.41699135e-01f,-2.78733969e-01f,-4.52975789e-03f,
+5.25287032e-01f,-2.44154781e-02f,-8.77407342e-02f,-3.13550532e-01f,-1.90703705e-01f,
+1.96929261e-01f,+6.01979852e-01f,+9.11716819e-01f,+2.78677911e-01f,-6.11381233e-01f,
+1.59749702e-01f,-1.48647308e-01f,-3.34637128e-02f,-3.29801470e-01f,+1.04294710e-01f,
+5.55454493e-01f,-1.25040546e-01f,+6.18896246e-01f,+2.29808744e-02f,+3.55239034e-01f,
-5.91793597e-01f,-1.56843364e-02f,-3.02971095e-01f,+4.41209078e-01f,-1.33726761e-01f,
-3.02054912e-01f,-1.07318439e-01f,-2.57346481e-01f,-6.34075880e-01f,-4.56153008e-04f,
-7.95886107e-03f,-2.64475852e-01f,+1.97645396e-01f,+6.83462322e-02f,+4.62781191e-01f,
+5.14437556e-01f,-3.37342620e-01f,+3.70806545e-01f,+5.15358686e-01f,+2.17012882e-01f,
+1.20598160e-01f,+1.32074222e-01f,-2.11095050e-01f,-3.10470946e-02f,+1.19249858e-01f,
-7.14179426e-02f,+4.14983071e-02f,+5.37950173e-02f,-1.80105165e-01f,-8.24998200e-01f,
+4.93086576e-02f,-9.85266119e-02f,+6.81062713e-02f,+1.92981631e-01f,-1.26285344e-01f,
+5.24481945e-02f,-4.07919943e-01f,-6.20350689e-02f,-1.68128297e-01f,+2.27489173e-01f,
+2.44128361e-01f,+1.59832448e-01f,+4.46696319e-02f,-1.74662456e-01f,-8.17990601e-02f,
+4.11855400e-01f,-4.67484742e-02f,+6.74309134e-02f,-1.43238381e-01f,+2.66220599e-01f,
+2.85644475e-02f,+1.63561970e-01f,-1.80079445e-01f,+2.37561852e-01f,-7.91826919e-02f,
+4.72110480e-01f,-1.92036912e-01f,-4.98813652e-02f,-1.69276357e-01f,+2.94569016e-01f,
+1.65167525e-01f,+5.48041686e-02f,+2.43710354e-02f,+3.27226013e-01f,+3.22455645e-01f,
-2.67164782e-02f,-1.79407950e-02f,+4.48098034e-01f,+1.30730569e-01f,+2.78504461e-01f,
+6.07699990e-01f,+4.04185921e-01f,+3.00906688e-01f,+6.97102323e-02f,-5.66353984e-02f,
+8.52035284e-02f,+2.33848870e-01f,-4.75618988e-02f,-2.76733279e-01f,+8.00303072e-02f,
+8.34490433e-02f,+1.48439646e-01f,+1.11277312e-01f,+1.08541869e-01f,-2.26420149e-01f,
-4.88146469e-02f,-2.23185495e-01f,+1.86148971e-01f,+1.82513501e-02f,+3.29699546e-01f,
+4.44263995e-01f,-2.20746666e-01f,-1.30637139e-01f,-2.06708834e-01f,+2.21106887e-01f,
+3.88480365e-01f,+2.27323752e-02f,+2.57257938e-01f,-1.61189288e-01f,+1.44626573e-01f,
+1.19946919e-01f,-1.96694490e-02f,+1.68709397e-01f,-1.44151777e-01f,+5.64070463e-01f,
-4.78588045e-01f,-2.78661996e-02f,+1.73444033e-01f,+2.80496895e-01f,+4.96740460e-01f,
-1.34699970e-01f,-2.05717422e-03f,-4.06021923e-01f,-1.11892045e-01f,+7.55284205e-02f,
+4.02010158e-02f,-1.66123658e-01f,+3.83762062e-01f,+9.04337224e-03f,-6.26547933e-02f,
+1.29708037e-01f,+1.12864859e-02f,-3.93308550e-02f,+6.40204325e-02f,+4.10261303e-01f,
-3.86180907e-01f,-9.71437320e-02f,-3.67940664e-01f,-4.70214725e-01f,-6.46597296e-02f,
+3.46646875e-01f,+4.50056434e-01f,+1.27353504e-01f,+9.71016407e-01f,-1.53694395e-02f,
-2.16896504e-01f,-2.38383472e-01f,-2.48101279e-01f,-1.60832077e-01f,-2.36086726e-01f,
+1.26133457e-01f,-1.30483106e-01f,+2.51754165e-01f,+1.19234018e-01f,+5.38087606e-01f,
+8.24640870e-01f,-1.11512400e-01f,+3.30216557e-01f,+1.13634780e-01f,+2.86279142e-01f,
-3.23353887e-01f,+2.74232447e-01f,+4.10693705e-01f,-1.09475821e-01f,+4.96286452e-01f,
-2.18246564e-01f,+1.34422690e-01f,-1.10851757e-01f,+1.64507225e-01f,+3.17294300e-01f,
+5.96488237e-01f,-2.83505708e-01f,+4.30747904e-02f,+3.81971598e-01f,+2.34710693e-01f,
+5.11381105e-02f,-1.00792542e-01f,-4.46434319e-02f,+1.81958944e-01f,+3.15928519e-01f,
-1.30709693e-01f,-2.62799591e-01f,-6.29883930e-02f,+1.18357480e-01f,+2.18333438e-01f,
+1.65392861e-01f,+2.16281973e-02f,+3.86783592e-02f,+2.28289545e-01f,+6.74159676e-02f,
+1.49923980e-01f,-2.08527952e-01f,+7.49400780e-02f,+6.16882630e-02f,+4.78929579e-02f,
-3.09044361e-01f,+3.91142160e-01f,+8.26087520e-02f,-8.18944816e-03f,+1.46453023e-01f,
-4.93752584e-02f,+1.34741794e-02f,+6.45673648e-02f,-1.56036597e-02f,-8.74298811e-03f,
+2.20711101e-02f,-3.08085438e-02f,-2.06942260e-01f,+1.53171644e-01f,-1.14098407e-01f,
+4.99636799e-01f,-1.53003577e-02f,-1.41326174e-01f,-1.53842345e-01f,+1.77212805e-01f,
-2.53546163e-02f,+2.27005750e-01f,+1.34871840e-01f,+1.91130966e-01f,+3.25391829e-01f,
+2.64111191e-01f,+1.55927151e-01f,+3.21354389e-01f,-9.88915935e-02f,+1.97577864e-01f,
+2.27161750e-01f,+2.72572696e-01f,-5.24934679e-02f,+7.18474761e-02f,-7.03078741e-03f,
-2.05677316e-01f,-9.10814572e-03f,+1.21335983e-01f,+1.70455426e-01f,+1.28441468e-01f,
-1.81433231e-01f,+1.53838620e-01f,-1.47131300e-02f,+1.56208619e-01f,-1.71429012e-02f,
-1.15771577e-01f,-1.39491603e-01f,-6.87462091e-01f,-7.97707617e-01f,-2.69996673e-01f,
+2.04344019e-01f,+4.63072836e-01f,+3.51803660e-01f,-1.48280635e-01f,-1.08700119e-01f,
-4.92709160e-01f,-2.27400959e-01f,+4.41039950e-02f,-1.17840759e-01f,-2.96649128e-01f,
+1.53180823e-01f,-3.94605786e-01f,+5.01412332e-01f,-6.12080574e-01f,+9.09442827e-02f,
-2.95865387e-01f,+6.25537038e-01f,-6.42418444e-01f,-4.36615497e-01f,-5.57894446e-02f,
+4.57076520e-01f,-3.69768560e-01f,+4.02538851e-03f,-6.23311877e-01f,-4.18725401e-01f,
-4.05590981e-01f,-2.62014300e-01f,+4.06914324e-01f,-4.93346214e-01f,+3.59725565e-01f,
-6.48462176e-02f,-2.23043010e-01f,+4.85905826e-01f,-4.51965742e-02f,-6.98116958e-01f,
-5.90760827e-01f,+4.65609580e-01f,-7.98894465e-01f,-1.39186174e-01f,-7.64360875e-02f,
+4.88909304e-01f,+2.04266429e-01f,+1.18426032e-01f,-3.68746340e-01f,+6.34882748e-02f,
+7.44350478e-02f,-1.64593890e-01f,-6.96794987e-01f,-1.05887361e-01f,-2.86863714e-01f,
-3.80790412e-01f,-3.55025321e-01f,-2.69591004e-01f,+1.54284850e-01f,+1.84458733e-01f,
-2.31921226e-01f,-4.61572945e-01f,-6.22113407e-01f,-2.85682734e-02f,-1.27343178e-01f,
+2.04443783e-02f,-1.05846569e-01f,+5.70734367e-02f,+6.02013469e-02f,+6.35903925e-02f,
+5.28538711e-02f,-1.62592590e-01f,-6.73601357e-03f,-7.76752904e-02f,+2.42751390e-01f,
+5.84973115e-03f,+3.95440422e-02f,-1.76105779e-02f,-1.86388046e-02f,-7.89339989e-02f,
-6.32674471e-02f,-1.53431380e-02f,-9.00700465e-02f,-2.12609187e-01f,-1.35816574e-01f,
+2.37124011e-01f,-1.64382502e-01f,+9.57541019e-02f,-1.10189661e-01f,+4.56395745e-02f,
-8.69727433e-02f,-1.06360368e-01f,-4.49949130e-02f,-4.30789180e-02f,+1.57257304e-01f,
-1.57360405e-01f,+4.73997146e-02f,+5.47310449e-02f,+4.29454520e-02f,-1.37836605e-01f,
+1.34345302e-02f,+9.06018391e-02f,-1.47784397e-01f,-1.46727204e-01f,-1.63624167e-01f,
+5.62546775e-02f,+9.51302424e-02f,+6.63386062e-02f,+1.68367684e-01f,+5.60468212e-02f,
+2.61222988e-01f,+9.98075381e-02f,-2.75860161e-01f,-8.18437636e-02f,-4.01307121e-02f,
-1.53244793e-01f,-1.52788326e-01f,+1.65580913e-01f,+5.84980771e-02f,+2.51494963e-02f,
+6.80588856e-02f,-1.18802615e-01f,-4.86763753e-03f,+1.27438352e-01f,-1.42993480e-01f,
-5.49513921e-02f,-6.68066815e-02f,-1.44772083e-01f,+1.19161166e-01f,+9.60436314e-02f,
-3.21842805e-02f,+6.35254290e-03f,+6.34177076e-03f,-2.14050218e-01f,-9.43694264e-02f,
+5.06987423e-02f,-1.16407564e-02f,+3.87715064e-02f,-6.39276281e-02f,+3.06644998e-02f,
-8.93405974e-02f,-2.48664171e-02f,-1.35134496e-02f,-4.06043530e-02f,-1.11294948e-02f,
+1.71498079e-02f,-7.38805458e-02f,-1.01984993e-01f,+4.40647826e-03f,-1.05518475e-01f,
-5.02527989e-02f,-2.54240762e-02f,-3.96019891e-02f,+2.77268309e-02f,+6.37691244e-02f,
+8.80358648e-03f,-3.46446037e-02f,+7.47595653e-02f,+6.33263290e-02f,+7.82421380e-02f,
+6.97723031e-02f,+4.54411022e-02f,-1.05528787e-01f,+2.04265267e-02f,-1.33182138e-01f,
-6.57538474e-02f,+3.09925526e-04f,-8.46259892e-02f,-3.68429087e-02f,+1.72040388e-01f,
-1.91719711e-01f,+1.09678872e-01f,-9.10443738e-02f,+8.05151165e-02f,+1.83783606e-01f,
+6.22134693e-02f,-2.26016447e-01f,+7.79967308e-02f,-4.03406005e-03f,-3.47146229e-03f,
+1.60682108e-02f,-4.84903120e-02f,+1.12735584e-01f,-1.56439513e-01f,+2.23995112e-02f,
-1.14330515e-01f,+7.19941109e-02f,-4.48953407e-03f,-3.19119431e-02f,-1.82888687e-01f,
-1.02019258e-01f,+5.69942296e-02f,+6.20016083e-02f,-1.30818129e-01f,-1.08018517e-01f,
-3.95155959e-02f,+1.83487199e-02f,+1.61658168e-01f,-1.20434895e-01f,+1.63719252e-01f,
-1.87259726e-02f,+1.14027016e-01f,-8.98260996e-02f,-1.33051366e-01f,+1.64606541e-01f,
-8.08819905e-02f,+6.37507215e-02f,+3.88310924e-02f,-5.45101576e-02f,+4.87352908e-02f,
-1.00643978e-01f,-1.07879050e-01f,+6.53799847e-02f,+1.27636284e-01f,-8.60550068e-03f,
-7.18569458e-02f,-9.93131772e-02f,+1.28209963e-01f,-4.22448665e-02f,-1.81225002e-01f,
-4.32864614e-02f,-2.61054516e-01f,+4.69216406e-02f,-5.27912527e-02f,+1.00713819e-01f,
+1.06408931e-01f,-2.04131097e-01f,-4.17237058e-02f,-3.67115671e-03f,-9.58215371e-02f,
+1.20920628e-01f,+9.85469148e-02f,-6.22729212e-02f,+1.67647600e-02f,+5.03755063e-02f,
-6.35655597e-03f,-2.13843226e-01f,+2.90301014e-02f,+1.08766623e-01f,+5.76623566e-02f,
-2.40243465e-01f,+8.64600614e-02f,-8.80282670e-02f,-9.17685311e-03f,-4.34410907e-02f,
-2.86378443e-01f,-1.62623733e-01f,+1.13356272e-02f,-9.84198153e-02f,+8.58502313e-02f,
-1.15248509e-01f,-1.52076989e-01f,+4.40435149e-02f,-9.24824327e-02f,+6.49074540e-02f,
-3.74247432e-01f,-3.73658687e-01f,-3.79110098e-01f,-7.08801687e-01f,-4.48269956e-02f,
-2.12943275e-03f,-8.56955171e-01f,-3.50792408e-01f,-5.45566604e-02f,-1.47597700e-01f,
-2.60526359e-01f,-1.24015383e-01f,-2.17558846e-01f,+2.60132253e-01f,-3.95645618e-01f,
-5.20110130e-01f,+1.81469500e-01f,-2.13216349e-01f,+1.09737024e-01f,-1.58681005e-01f,
-4.66912717e-01f,+8.33074152e-02f,-1.76231235e-01f,-6.96593523e-02f,-3.51326555e-01f,
-1.52801901e-01f,+6.52926322e-03f,-2.25720227e-01f,-1.18970491e-01f,-5.25325119e-01f,
+3.57014686e-01f,-6.37936145e-02f,-4.75916982e-01f,-1.97570741e-01f,+1.59486026e-01f,
+1.90769613e-01f,+1.08680381e-02f,-1.55736981e-02f,+2.88873851e-01f,-1.67928725e-01f,
+4.07037228e-01f,+9.78651457e-03f,+2.59940088e-01f,-3.79865229e-01f,-3.95755887e-01f,
-2.06921190e-01f,-5.83170056e-01f,+2.64337867e-01f,+4.92257953e-01f,+4.74564433e-02f,
+3.50749701e-01f,+5.51960953e-02f,-2.71676630e-01f,-1.74614131e-01f,-6.05936572e-02f,
-4.39969391e-01f,-1.26115784e-01f,-6.02975488e-01f,-2.37844810e-01f,-3.19598466e-01f,
-2.20529243e-01f,+6.93266466e-02f,-3.39399040e-01f,-5.64097226e-01f,-2.86210716e-01f,
-5.19590616e-01f,+3.20951164e-01f,-2.89179653e-01f,+1.48852333e-01f,-1.59837484e-01f,
-2.44092718e-01f,-2.72705033e-02f,+1.43197596e-01f,+1.37492970e-01f,-1.29413784e-01f,
-1.84741080e-01f,-2.25667190e-02f,-3.36562186e-01f,-1.09806610e-03f,-1.64770838e-02f,
+1.46943666e-02f,-5.00394106e-01f,-1.32735491e-01f,-4.00606275e-01f,+5.78670949e-02f,
-1.66210473e-01f,+1.60873130e-01f,+2.60227680e-01f,-3.77617508e-01f,-3.13907042e-02f,
+5.06066263e-01f,-1.86426893e-01f,-9.94090289e-02f,-1.04988158e-01f,+4.39454615e-02f,
+5.30153327e-03f,+1.33171126e-01f,-1.00572176e-01f,-2.09327087e-01f,+9.20645595e-02f,
+1.66667234e-02f,-6.16866723e-02f,-2.90191621e-01f,-2.32800841e-02f,+7.33087808e-02f,
-2.44000405e-01f,-3.44134897e-01f,-2.67403424e-01f,-3.50420177e-02f,-1.57099113e-01f,
-7.16907203e-01f,+2.00204238e-01f,-5.22339284e-01f,-1.52978659e-01f,+2.30032399e-01f,
+3.31065767e-02f,-4.03816015e-01f,+4.20848995e-01f,-7.32107610e-02f,+3.44509794e-03f,
-5.01728415e-01f,-1.45616651e-01f,-2.05896378e-01f,-1.95692629e-01f,+6.82282031e-01f,
-2.68547058e-01f,-1.69046894e-01f,-2.64238924e-01f,-3.01794499e-01f,-6.27429366e-01f,
+4.28110391e-01f,+8.09505060e-02f,-3.42906058e-01f,-5.92002943e-02f,-1.30426094e-01f,
+2.10536018e-01f,-1.55813903e-01f,-1.12162858e-01f,-1.57848001e-01f,-3.44639480e-01f,
+2.83532795e-02f,-1.52554616e-01f,-1.06045201e-01f,-5.88967681e-01f,+5.04154265e-02f,
-6.69631660e-01f,+5.94464839e-01f,-3.18045974e-01f,-5.72196901e-01f,-5.15287042e-01f,
+5.79009235e-01f,-2.88017899e-01f,-1.11380838e-01f,-1.14462607e-01f,+7.12920189e-01f,
-4.21451181e-02f,-2.51341820e-01f,-2.57171959e-01f,+9.69094932e-02f,+3.66896331e-01f,
+3.40636253e-01f,+5.43582737e-01f,+2.39479151e-02f,+5.10205805e-01f,+1.04210889e-02f,
+2.88445413e-01f,-1.84862316e-01f,+6.07796252e-01f,+2.17171144e-02f,-3.53403598e-01f,
+1.36648163e-01f,-5.54083824e-01f,-3.98560315e-01f,-3.95552404e-02f,+2.03798056e-01f,
+2.76602745e-01f,-6.02309287e-01f,-2.92880028e-01f,+2.17118934e-01f,+1.50645934e-02f,
+2.87327170e-01f,+6.09829366e-01f,-1.19739801e-01f,-1.16140164e-01f,+5.14939167e-02f,
+4.67675589e-02f,-6.56877682e-02f,-1.60496756e-01f,+2.98527509e-01f,+1.53300226e-01f,
+8.06210786e-02f,-4.03048247e-01f,-4.63991612e-01f,-2.16123909e-01f,-3.50039721e-01f,
+2.12679386e-01f,-3.48947048e-01f,-4.24065217e-02f,-4.53373253e-01f,-5.96556142e-02f,
-6.85907975e-02f,-2.83449590e-01f,+2.44872738e-03f,-1.89379826e-01f,-5.69928065e-02f,
+1.53276116e-01f,+1.26754522e-01f,-3.78482789e-01f,-3.74341309e-01f,+3.36101711e-01f,
-2.54688691e-02f,-1.46723479e-01f,-2.08673850e-01f,-4.03414130e-01f,+1.51762739e-01f,
-4.85943973e-01f,-8.96735191e-02f,-1.92843542e-01f,+4.02787536e-01f,-8.53831410e-01f,
-8.58266056e-02f,-4.01484966e-01f,-5.63505404e-02f,-3.76002699e-01f,-4.44351465e-01f,
+1.32256567e-01f,-8.13027799e-01f,-1.32154766e-03f,-1.88123420e-01f,+5.88010922e-02f,
-7.53934205e-01f,-2.18516052e-01f,+2.99325407e-01f,-5.25265515e-01f,-4.03218627e-01f,
-2.80140281e-01f,-5.03512025e-01f,-6.93728745e-01f,-5.70836067e-01f,+4.60873216e-01f,
-5.22192717e-02f,-3.25463355e-01f,+1.23762868e-01f,+8.52844641e-02f,-1.33966714e-01f,
-3.09657007e-01f,-4.62369114e-01f,-1.31948143e-01f,-7.88554847e-02f,-2.12361485e-01f,
-8.16920251e-02f,-5.85250556e-01f,+3.09383184e-01f,-3.04094642e-01f,-8.50483477e-02f,
+7.64977485e-02f,+1.24874622e-01f,-8.20890427e-01f,-5.46658598e-02f,-7.41811842e-02f,
-6.14757657e-01f,-4.58140858e-02f,-6.57884926e-02f,-3.78905207e-01f,+2.95545161e-01f,
-2.93761164e-01f,-3.98945026e-02f,-3.97986442e-01f,+1.61964700e-01f,-3.04331720e-01f,
+6.82984889e-02f,-6.86263442e-01f,+7.47814238e-01f,-1.18430376e+00f,+4.05852675e-01f,
-6.07489645e-01f,-8.77066195e-01f,-1.50520205e-01f,+4.36593860e-01f,-3.56746554e-01f,
+2.54858166e-01f,-1.30247235e-01f,+3.88511837e-01f,-4.40435797e-01f,-1.68497697e-01f,
-3.78031224e-01f,-4.45804000e-02f,+4.43769544e-01f,+1.14625308e-03f,+7.54277170e-01f,
+5.09741485e-01f,+5.09585202e-01f,-5.85076511e-02f,+1.76757902e-01f,+4.33691025e-01f,
+5.03301680e-01f,-5.05012691e-01f,-2.10766658e-01f,+5.80663800e-01f,+2.80095190e-02f,
-1.21338166e-01f,+2.08405897e-01f,+2.91667849e-01f,-3.79470408e-01f,-1.48822159e-01f,
-2.15426862e-01f,+4.83856469e-01f,-1.02783188e-01f,-5.92034698e-01f,+1.24517540e-02f,
-2.13316604e-01f,-3.76138166e-02f,-8.22732896e-02f,+1.13720842e-01f,-2.52847075e-01f,
-2.28382364e-01f,+6.27072930e-01f,-5.65469563e-01f,+5.23016900e-02f,-1.93529457e-01f,
-1.64783269e-01f,-4.47961763e-02f,+8.39163959e-02f,+2.88139224e-01f,-1.40717719e-02f,
-4.85446528e-02f,-2.17509910e-01f,+1.51752695e-01f,+2.21403286e-01f,-2.89156456e-02f,
-9.63416416e-03f,-3.20169568e-01f,-1.29448965e-01f,+6.19508401e-02f,+3.99238728e-02f,
-3.92073661e-01f,+2.53751576e-01f,+9.47026908e-02f,+1.19300090e-01f,-1.13329217e-01f,
+9.47496071e-02f,-4.13620532e-01f,-2.07205024e-02f,-4.21846628e-01f,-3.03206146e-01f,
+9.40709095e-03f,-3.81142907e-02f,-1.72376558e-01f,-1.33670732e-01f,-2.05671430e-01f,
+2.15619624e-01f,+3.11614633e-01f,-1.04833201e-01f,-1.32109329e-01f,+5.46492815e-01f,
-4.97393727e-01f,-4.01950926e-02f,-8.00181925e-02f,+3.07444006e-01f,-2.39288375e-01f,
-2.99798697e-01f,-3.83007258e-01f,-3.56461555e-01f,-4.41085637e-01f,-3.86941545e-02f,
+1.66275218e-01f,-8.92784894e-02f,-4.79110517e-02f,+7.70116001e-02f,-1.57626152e-01f,
+1.50062382e-01f,-3.47359747e-01f,-2.56079920e-02f,+6.05649278e-02f,-1.90967187e-01f,
+3.58034074e-02f,-9.00213659e-01f,-1.90634578e-01f,-8.81166721e-04f,+1.60660390e-02f,
+5.01784980e-01f,+9.07663405e-02f,+1.94733098e-01f,+1.87581275e-02f,-1.91240519e-01f,
+3.45387347e-02f,-5.27975082e-01f,-1.25137404e-01f,+2.70560626e-02f,+2.95443274e-02f,
-3.80596459e-01f,+1.87554851e-01f,-4.45603505e-02f,+5.64817004e-02f,-1.57756597e-01f,
+3.56521271e-02f,+8.90173391e-02f,-1.35120392e-01f,-9.42239817e-03f,+4.00430053e-01f,
+2.71273166e-01f,-9.31448638e-02f,-2.01263115e-01f,+1.89925224e-01f,+2.69532770e-01f,
-5.89348137e-01f,+2.71381497e-01f,-4.12518382e-01f,+2.32674241e-01f,-1.18934102e-01f,
+1.05726950e-01f,-2.01662943e-01f,-1.10780178e-02f,+1.58032328e-01f,+1.22667067e-01f,
+1.69130847e-01f,+3.86316806e-01f,+5.32758869e-02f,+1.98836848e-01f,+6.12695873e-01f,
-2.18951032e-02f,+5.78213073e-02f,-3.30819428e-01f,+5.97128510e-01f,+9.97720212e-02f,
-7.13988364e-01f,+2.26663187e-01f,-2.72378504e-01f,-2.47507781e-01f,-1.74220011e-01f,
-3.20340693e-01f,+3.72303605e-01f,-2.23068982e-01f,-7.81246424e-01f,-1.91792503e-01f,
+4.07869726e-01f,+7.35289395e-01f,+5.10930240e-01f,-1.74290434e-01f,-3.04813355e-01f,
-5.08075416e-01f,+7.47190952e-01f,-3.22215259e-01f,-9.75952074e-02f,-5.23687840e-01f,
-2.59866178e-01f,+6.70091659e-02f,-6.50971383e-02f,-8.49117488e-02f,-1.79450363e-01f,
-3.13195199e-01f,+1.57607459e-02f,+5.85459173e-02f,-1.60598010e-01f,+5.06812101e-03f,
+2.18904130e-02f,-6.34291545e-02f,-7.45973513e-02f,+7.04204664e-02f,-7.12344572e-02f,
+1.52023196e-01f,+8.17832053e-02f,-1.81103218e-02f,+1.22610908e-02f,+1.98975746e-02f,
-1.98127344e-01f,+3.88847664e-02f,+1.38281181e-01f,+1.82839990e-01f,+1.81542948e-01f,
+8.05237666e-02f,+6.70145452e-02f,+5.86041389e-03f,-1.45290360e-01f,-1.01828776e-01f,
-1.00309797e-01f,+1.22247394e-02f,-3.82612608e-02f,+1.32052405e-02f,+2.01966744e-02f,
+1.54737225e-02f,+2.66764257e-02f,-5.47500700e-02f,+1.71296000e-01f,+7.02611804e-02f,
+9.22442898e-02f,-1.95246026e-01f,+1.51108935e-01f,-9.09838974e-02f,-2.70835329e-02f,
-8.55092406e-02f,-6.98705986e-02f,-1.83064133e-01f,-1.13226049e-01f,+2.25932430e-02f,
-1.00048587e-01f,-3.27662528e-02f,-3.32260169e-02f,-2.77150035e-01f,+2.24177223e-02f,
+5.29371388e-02f,-2.72716463e-01f,-3.43894899e-01f,+8.81390367e-03f,-9.15885046e-02f,
-6.59800484e-04f,+5.39179891e-03f,-3.26371938e-02f,+1.15628205e-01f,+1.46957204e-01f,
+1.00826323e-02f,+3.59750651e-02f,+9.39939842e-02f,-2.30824560e-01f,-3.44398730e-02f,
-1.61685959e-01f,+3.67162406e-01f,-2.23927781e-01f,-1.92857355e-01f,-5.33961415e-01f,
-3.85712683e-01f,-2.16535151e-01f,-2.05938354e-01f,+4.46300805e-01f,-2.23212391e-01f,
-5.23609340e-01f,-5.74609280e-01f,+1.43384695e-01f,-3.44747156e-01f,+4.74590898e-01f,
-2.26581678e-01f,+4.67552662e-01f,-3.05700358e-02f,+3.12642276e-01f,-1.67726383e-01f,
+3.52880210e-01f,+6.97042495e-02f,-2.28475228e-01f,+6.80110380e-02f,+2.40180194e-01f,
-3.34016010e-02f,-2.80051410e-01f,-1.08540095e-01f,-3.36142808e-01f,-2.17895791e-01f,
-2.30225518e-01f,-6.60965800e-01f,-2.92706847e-01f,-2.35231742e-01f,-6.42262995e-01f,
-1.02440923e-01f,-2.45996892e-01f,-1.81274816e-01f,+2.37195000e-01f,-4.74189669e-01f,
+3.27464044e-01f,-1.15485609e-01f,-6.62014544e-01f,-1.60455257e-01f,-1.84027389e-01f,
-2.16131046e-01f,+1.65619940e-01f,-1.57122642e-01f,-3.28047186e-01f,+6.82405755e-02f,
-2.26698756e-01f,-2.37500399e-01f,-1.00027300e-01f,+6.37646252e-03f,+1.36176720e-01f,
+8.04390460e-02f,-2.67477423e-01f,-3.98703724e-01f,+1.23549879e-01f,-1.67975709e-01f,
-4.74958032e-01f,-1.25573464e-02f,-1.53225675e-01f,-1.12901017e-01f,+4.66792379e-03f,
-2.61255912e-02f,-1.60437062e-01f,+1.45589426e-01f,-1.70117706e-01f,+4.25248407e-02f,
-2.04295106e-02f,+8.02453905e-02f,-1.49616197e-01f,+7.08902776e-02f,-4.72028069e-02f,
-1.20142139e-02f,-1.28114030e-01f,-8.95699710e-02f,+1.07832141e-01f,+1.61409266e-02f,
+1.15276538e-01f,-1.41507259e-03f,-2.44575068e-02f,-1.62857510e-02f,+8.16692039e-02f,
+1.61741048e-01f,-9.97084826e-02f,+8.51542130e-02f,+9.48570743e-02f,-1.73272304e-02f,
-9.13083106e-02f,-2.76415590e-02f,+5.69686852e-02f,+6.15390949e-02f,+1.16490237e-01f,
+1.35937974e-01f,-2.00595520e-02f,-3.31840143e-02f,+2.51023229e-02f,-3.39802168e-02f,
-7.05965310e-02f,+1.59137413e-01f,-5.22892661e-02f,-4.36939634e-02f,-4.58745696e-02f,
-5.02837598e-02f,-8.33791420e-02f,+1.08041510e-01f,+1.15268186e-01f,-3.14605720e-02f,
+4.01840881e-02f,-5.91629744e-02f,-8.40587690e-02f,+2.33532280e-01f,+8.11579637e-03f,
+9.84722897e-02f,+1.04889683e-01f,-4.96878177e-02f,+1.17952703e-02f,-1.53576761e-01f,
-1.54971078e-01f,-9.72884074e-02f,-1.42168075e-01f,-9.44162384e-02f,-4.83443849e-02f,
+6.04676455e-02f,+9.87414271e-02f,-3.17775980e-02f,-3.46876727e-03f,-1.38822958e-01f,
+7.95112699e-02f,-1.72614053e-01f,-1.54595628e-01f,+4.44534756e-02f,-5.99372722e-02f,
+1.46116391e-01f,-9.02741179e-02f,+5.75722419e-02f,+1.17170855e-01f,+1.04370207e-01f,
-1.03436038e-01f,-5.92180006e-02f,-7.62392953e-02f,+1.25642851e-01f,-1.07593462e-01f,
+7.38702118e-02f,+1.47907451e-01f,+7.31897354e-03f,+4.61677872e-02f,-4.38646935e-02f,
+4.29893434e-02f,+9.14672017e-02f,-7.84710348e-02f,-1.04196601e-01f,-3.84298377e-02f,
-6.78745806e-02f,-1.33283194e-02f,-4.85060364e-02f,+1.03195488e-01f,+5.61448857e-02f,
-6.43712208e-02f,-1.40802398e-01f,-1.56248868e-01f,-1.57176316e-01f,+1.60976246e-01f,
+2.50250846e-03f,-7.31205568e-02f,+1.79785956e-02f,-1.35300294e-01f,+4.56731431e-02f,
+8.63140672e-02f,-7.22289830e-03f,+1.31252810e-01f,+1.57770049e-02f,+5.92665263e-02f,
+5.42013720e-02f,-3.75701077e-02f,+4.79760915e-02f,-2.27991361e-02f,+4.89889607e-02f,
+5.77868260e-02f,+1.03706248e-01f,+3.53811681e-03f,-7.82926157e-02f,-8.00072923e-02f,
-4.84190471e-02f,+1.39657378e-01f,+4.52623703e-02f,+1.09185144e-01f,-3.23590994e-01f,
+6.07304163e-02f,+4.12034482e-01f,+4.10203226e-02f,-7.48739779e-01f,-1.26501963e-01f,
-9.30329978e-01f,-1.01799868e-01f,-2.59441584e-01f,-1.83017373e-01f,-1.37501299e-01f,
-3.18337470e-01f,-1.05745509e-01f,-1.87540740e-01f,-5.72487116e-01f,-5.13500750e-01f,
+1.64938971e-01f,-3.46829087e-01f,+2.62167543e-01f,-3.44859153e-01f,-5.78920186e-01f,
-3.58097672e-01f,-5.77513993e-01f,-1.96394891e-01f,-1.60171568e-01f,-1.53906614e-01f,
+4.54206057e-02f,-1.11998916e-01f,-7.80091584e-02f,-6.19302750e-01f,+1.63351730e-01f,
+1.44607082e-01f,-9.67699066e-02f,+4.25718397e-01f,-6.81661308e-01f,+3.59684259e-01f,
-1.18438676e-02f,-1.65568843e-01f,+3.62499058e-01f,-1.38477787e-01f,-2.75028884e-01f,
-6.74669743e-02f,+1.44043982e-01f,-5.70750475e-01f,+4.63889927e-01f,+1.71476789e-02f,
+3.35031658e-01f,-4.15609300e-01f,-4.39238191e-01f,-2.54224569e-01f,+3.76682818e-01f,
-5.42586669e-02f,+3.18375766e-01f,-2.99277250e-03f,-4.43987012e-01f,+2.03730479e-01f,
-5.71508229e-01f,+5.28515697e-01f,-7.82701135e-01f,+6.14280522e-01f,+4.46003020e-01f,
-3.81313980e-01f,-2.42361248e-01f,+9.13650468e-02f,-4.83099341e-01f,-1.57524459e-02f,
+5.10104932e-02f,-1.96873128e-01f,+1.49701580e-01f,-2.21888185e-01f,+2.21448049e-01f,
-2.76871294e-01f,-2.67211586e-01f,-1.44832999e-01f,-8.58128965e-02f,+3.21729898e-01f,
-3.84473473e-01f,-1.09372067e+00f,-7.67732024e-01f,-1.37180299e-01f,-5.28042205e-02f,
+1.92243755e-01f,-2.41047934e-01f,+3.74236107e-01f,+2.16771945e-01f,-4.42235261e-01f,
-2.58385360e-01f,+5.83189189e-01f,-3.22875321e-01f,+1.50569873e-02f,-3.67210954e-01f,
-5.14356308e-02f,-1.38631105e-01f,-6.52402192e-02f,-4.70174760e-01f,-3.73722494e-01f,
-5.22665024e-01f,+2.02169223e-03f,-1.39422134e-01f,-1.45639673e-01f,-1.26933187e-01f,
-2.50445724e-01f,-1.39039472e-01f,-5.69565594e-01f,-3.23979944e-01f,+9.35124233e-04f,
-4.34834182e-01f,-1.37552857e-01f,-7.72195635e-03f,-8.34529996e-01f,-3.32717985e-01f,
-4.57722872e-01f,-2.69731462e-01f,+5.74327707e-02f,-8.67559239e-02f,-5.71651101e-01f,
-1.40606090e-01f,-3.19060594e-01f,+3.56422156e-01f,-8.53808522e-02f,+3.86840940e-01f,
-5.55725634e-01f,+4.39287782e-01f,-1.46673635e-01f,-2.36644432e-01f,+2.74102598e-01f,
-1.21773072e-01f,-8.11524689e-01f,-1.23517230e-01f,-2.07790509e-01f,+1.68361366e-01f,
+9.94248763e-02f,-6.34060025e-01f,-1.53906107e-01f,-6.42293274e-01f,+3.55740339e-02f,
+1.81465730e-01f,-1.18671842e-01f,-6.80193976e-02f,-6.67962730e-02f,-3.10837507e-01f,
-3.14099163e-01f,-1.72214001e-01f,-4.43572342e-01f,+5.73874176e-01f,-7.12796271e-01f,
+2.38174200e-02f,+2.19661833e-05f,-7.10671425e-01f,-6.53920555e-03f,+3.13826203e-01f,
-4.93099481e-01f,-1.36161238e-01f,-1.21801227e-01f,+2.24337786e-01f,-2.54042298e-01f,
-5.93961291e-02f,-4.83937472e-01f,+3.71128589e-01f,-3.90487276e-02f,-4.74124402e-02f,
+2.13231489e-01f,+4.24221635e-01f,+1.83216572e-01f,-1.31779283e-01f,-1.18601032e-01f,
+4.20864373e-01f,+3.17098528e-01f,+1.66079812e-02f,-3.35238189e-01f,+1.20582089e-01f,
-3.16464126e-01f,-1.98183194e-01f,-1.51734818e-02f,+4.70671147e-01f,+1.51959673e-01f,
+1.82654634e-01f,+1.87865198e-01f,+1.88861445e-01f,+3.09601337e-01f,+4.01552737e-01f,
+2.96057522e-01f,-3.24544132e-01f,-1.30574375e-01f,-5.91863632e-01f,-2.98298717e-01f,
-2.99962442e-02f,+1.81356996e-01f,+1.13786303e-01f,-4.41302538e-01f,-1.10068887e-01f,
-3.73777092e-01f,-3.85613069e-02f,+1.18771426e-01f,-1.40083104e-01f,-2.70003676e-01f,
-3.98369342e-01f,-8.77521858e-02f,-3.90439272e-01f,-4.58610989e-03f,+9.64665562e-02f,
-1.68758795e-01f,-1.46565467e-01f,-5.68945587e-01f,-4.89722878e-01f,-2.68581882e-02f,
+2.28111539e-02f,-2.95018256e-01f,+4.70043629e-01f,-3.39315802e-01f,+8.78291652e-02f,
-4.58013296e-01f,-2.44496062e-01f,-3.93095732e-01f,-1.75376937e-01f,-2.84087628e-01f,
-1.08168185e-01f,-5.24495356e-02f,+2.08582550e-01f,-3.49266306e-02f,-2.56275050e-02f,
-4.74025875e-01f,+2.74209082e-01f,+3.23836207e-01f,-2.46006753e-02f,+1.50183961e-01f,
-4.07019436e-01f,+4.25893843e-01f,-1.64691627e-01f,+3.74667943e-02f,+3.57520044e-01f,
-3.08854699e-01f,-7.09950970e-03f,-3.19322437e-01f,+3.28179032e-01f,-3.71927381e-01f,
-2.99564093e-01f,-1.92416802e-01f,+2.49218062e-01f,+2.83240944e-01f,+1.49884000e-01f,
-3.81341189e-01f,+6.23641491e-01f,-4.18658197e-01f,+3.87683690e-01f,-5.86546622e-02f,
-3.25290442e-01f,+8.60665888e-02f,-9.02841091e-02f,-8.72657970e-02f,-7.65843764e-02f,
+2.53717452e-01f,-2.44005304e-02f,-8.54390413e-02f,-7.62626708e-01f,-9.00950313e-01f,
-5.17874435e-02f,+7.28009716e-02f,+1.11900508e-01f,-1.80497408e-01f,+7.82753224e-04f,
-1.63941517e-01f,-1.40178680e-01f,+2.56948937e-02f,-4.14617471e-02f,-1.63734471e-03f,
+8.07222724e-02f,-1.94617193e-02f,+1.64188609e-01f,+2.65218198e-01f,+7.09363893e-02f,
-1.30042940e-01f,+6.61317259e-02f,-1.34221375e-01f,+2.66786218e-01f,-2.83206463e-01f,
+7.18438402e-02f,-1.56616464e-01f,-1.95142940e-01f,+9.06472374e-03f,+1.74314573e-01f,
+1.93384856e-01f,+1.46879209e-02f,-8.97288173e-02f,+3.27621177e-02f,-5.73817231e-02f,
+3.72887738e-02f,+9.91172791e-02f,+1.37411043e-01f,-3.14885303e-02f,+3.20498161e-02f,
-1.01056360e-01f,-6.98031858e-02f,+5.06909750e-02f,+5.51291183e-02f,-2.33520821e-01f,
+7.24971220e-02f,-5.30433245e-02f,+1.43811673e-01f,+1.64078534e-01f,-7.10965320e-02f,
+1.75644726e-01f,+1.24906518e-01f,+9.61819068e-02f,-4.09977138e-02f,-2.54609555e-01f,
-4.18151803e-02f,+3.07097603e-02f,+3.39547954e-02f,-9.45655629e-02f,+4.90561873e-02f,
-1.46006480e-01f,+5.61137125e-02f,-1.07308421e-02f,-1.66019186e-01f,+7.74718076e-02f,
+1.59333929e-01f,-2.46993914e-01f,-4.47580442e-02f,+2.08888888e-01f,+4.51629143e-03f,
-1.99017134e-02f,-7.25810602e-02f,-1.37741063e-02f,-2.92226877e-02f,-6.66197613e-02f,
+8.29145908e-02f,-1.40585462e-02f,+4.09285054e-02f,-5.97106107e-02f,+1.17149942e-01f,
+1.89073943e-02f,-1.46689042e-02f,-8.19667354e-02f,-1.16119511e-01f,-9.95939970e-02f,
+1.48240235e-02f,-9.69491601e-02f,+8.94115120e-02f,-1.48590982e-01f,-1.65979028e-01f,
+1.24473281e-01f,-3.02468669e-02f,+1.16510298e-02f,+4.67978418e-02f,-6.02625795e-02f,
+8.14793110e-02f,+7.83139542e-02f,-1.52416140e-01f,-1.14389956e-01f,-8.70858356e-02f,
+9.47265029e-02f,+1.35719389e-01f,+1.74703732e-01f,+8.63444135e-02f,-1.44801661e-01f,
-4.24249247e-02f,-1.54160455e-01f,-1.92664657e-02f,-1.07820500e-02f,+8.41185823e-02f,
+1.50699914e-01f,+1.02663867e-01f,+6.18468635e-02f,+2.51069292e-03f,-1.73059199e-02f,
+1.51427045e-01f,-1.63373724e-01f,+5.68831973e-02f,+4.00114525e-03f,+7.94707537e-02f,
+2.39403918e-02f,-3.96823287e-02f,-2.80409474e-02f,+1.29929498e-01f,+1.32141009e-01f,
+5.18590547e-02f,+4.72044125e-02f,+3.17052379e-02f,+1.97723508e-02f,-1.64212242e-01f,
-5.54412566e-02f,+2.91156173e-02f,-6.79817125e-02f,-2.53613591e-01f,+2.76794761e-01f,
-1.64578632e-01f,+8.99421866e-04f,+4.69623119e-01f,-1.42263830e-01f,-1.09145921e-02f,
+1.12575732e-01f,-4.35746074e-01f,+1.06106617e-01f,-9.43001956e-02f,+7.81265348e-02f,
+3.77769977e-01f,-1.00092649e+00f,-4.90939498e-01f,+1.74256817e-01f,+2.93307304e-02f,
+2.32382849e-01f,-3.62397552e-01f,+4.46562082e-01f,-7.15790749e-01f,-1.85341030e-01f,
-1.18685149e-01f,+7.29719177e-02f,-4.64428186e-01f,-2.00595390e-02f,-3.39127332e-01f,
+2.60091156e-01f,-4.01767604e-02f,-2.02482536e-01f,-7.80877113e-01f,+2.11894557e-01f,
-7.38118351e-01f,-3.24446671e-02f,-2.33121946e-01f,-3.29684556e-01f,-2.25376748e-02f,
-1.23488992e-01f,-2.99525745e-02f,+5.78298010e-02f,-1.48907388e-02f,+1.20998912e-01f,
-9.02223960e-02f,+2.02516392e-01f,-3.11507612e-01f,-6.38042271e-01f,-2.58070916e-01f,
-1.45634294e-01f,-1.37767598e-01f,+4.24250484e-01f,-1.62406474e-01f,-3.62642229e-01f,
-1.12152457e+00f,-6.16239682e-02f,-3.25438112e-01f,-6.85693473e-02f,+1.11754812e-01f,
-3.88584286e-02f,-5.70081592e-01f,-9.99549124e-03f,+9.35221687e-02f,+1.53265268e-01f,
-6.59067184e-02f,-5.34543931e-01f,-9.57960635e-02f,-2.58552581e-01f,-1.66651085e-01f,
-3.14760894e-01f,-3.21325928e-01f,-1.77594796e-01f,-1.12495087e-01f,-9.27403629e-01f,
-4.30760860e-01f,-1.58659190e-01f,-1.30687863e-01f,+9.35120359e-02f,-1.73625052e-01f,
-1.38954476e-01f,-3.09725732e-01f,+3.33132982e-01f,-5.64872138e-02f,+3.87084007e-01f,
-1.17565654e-01f,-1.34601951e-01f,+3.21869016e-01f,+1.85164809e-01f,-3.55529308e-01f,
+1.47428870e-01f,-4.26041156e-01f,-1.28111407e-01f,-2.38163784e-01f,+4.56870645e-02f,
-9.78850573e-02f,-2.13078156e-01f,-7.09294260e-01f,-3.78865182e-01f,+5.35342135e-02f,
+1.95290923e-01f,+1.72174126e-01f,-2.44992077e-01f,-1.61735475e-01f,-1.20713234e-01f,
-2.66358852e-01f,+2.89634436e-01f,-3.89847457e-01f,-2.47853279e-01f,-5.49841702e-01f,
-2.22854003e-01f,-6.45235106e-02f,-4.82220799e-01f,-3.02709103e-01f,-2.11499825e-01f,
-4.05667454e-01f,-2.96593636e-01f,-1.10232376e-01f,-1.34410068e-01f,-2.93664843e-01f,
-2.33419746e-01f,+5.02854228e-01f,-1.07476309e-01f,-1.03480175e-01f,-3.69498953e-02f,
+2.45477200e-01f,-8.92902762e-02f,+4.30486239e-02f,+2.70441860e-01f,-4.06048745e-01f,
-2.91009784e-01f,-2.88712680e-01f,-5.02272367e-01f,+3.07869971e-01f,-2.58473307e-01f,
+4.93987501e-01f,-3.82821001e-02f,-4.84942138e-01f,-1.61841094e-01f,-6.14284337e-01f,
-1.67744651e-01f,+5.39681651e-02f,+5.15617073e-01f,+1.85902551e-01f,-4.68152225e-01f,
-3.33004713e-01f,+6.12492068e-03f,-2.96832323e-01f,-2.05830172e-01f,-1.68372750e-01f,
+3.79685283e-01f,+3.42415720e-01f,+5.93791187e-01f,-2.43008249e-02f,+2.56462604e-01f,
+3.03106129e-01f,-6.37509301e-02f,+7.68642116e-04f,+3.16095918e-01f,+3.49969789e-02f,
+4.95512396e-01f,-3.15008581e-01f,-2.44221866e-01f,-5.13060212e-01f,+1.40391424e-01f,
-3.13161500e-02f,+9.72701013e-02f,-1.14250492e-04f,-2.70947248e-01f,-2.42982924e-01f,
-3.34920555e-01f,-1.78362280e-02f,+1.81304757e-02f,-2.95342296e-01f,+4.73255552e-02f,
-2.11544633e-01f,-2.09065616e-01f,-5.52345365e-02f,-8.83720368e-02f,-4.03973818e-01f,
+3.80060226e-01f,+1.62465006e-01f,-3.91195863e-01f,+1.43480543e-02f,-1.62827551e-01f,
+3.77110720e-01f,-6.38394505e-02f,+2.03074634e-01f,-1.45799533e-01f,+2.70660728e-01f,
-4.04250920e-01f,+1.62625253e-01f,+7.08412945e-01f,+1.12087928e-01f,-5.51535249e-01f,
-3.14550288e-02f,+1.39918635e-02f,-1.68652758e-01f,-1.03656448e-01f,+6.00519516e-02f,
+1.56797152e-02f,+1.90562725e-01f,+1.75678711e-02f,-1.35873064e-01f,+6.28041551e-02f,
+8.75522792e-02f,+4.38016839e-02f,+2.14528088e-02f,+7.12630302e-02f,-5.70287484e-05f,
-6.26054853e-02f,+7.72255659e-02f,+2.01183468e-01f,-4.51737829e-02f,-3.82620133e-02f,
+8.48619044e-02f,-1.03103511e-01f,-2.45397583e-01f,+1.08952187e-01f,+2.92942207e-02f,
+7.47420117e-02f,-1.00344084e-01f,-1.11707255e-01f,-1.32402033e-01f,-1.11043446e-01f,
-1.11223087e-01f,+1.69737667e-01f,-1.39583752e-01f,+1.42979726e-01f,-7.61252418e-02f,
+3.69900651e-02f,-8.59442502e-02f,+6.56597242e-02f,-2.20775567e-02f,+1.22949310e-01f,
+3.35586220e-02f,+9.61563960e-02f,-9.44290087e-02f,+1.53035939e-01f,-1.50896609e-01f,
-1.94360882e-01f,-4.43588533e-02f,-2.51510918e-01f,+1.04647741e-01f,-1.17000192e-01f,
+2.42119730e-02f,-7.18058422e-02f,+8.22480395e-02f,+6.33030310e-02f,-2.09587179e-02f,
+3.72578017e-02f,-1.82098721e-03f,+1.22194536e-01f,+1.38211280e-01f,+5.76644056e-02f,
-8.16436857e-03f,+1.27252862e-01f,-7.64219537e-02f,-1.34617493e-01f,-1.29372463e-01f,
+3.18662345e-01f,+2.44873036e-02f,+2.45506495e-01f,-2.99028605e-01f,+4.18358557e-02f,
+4.93015675e-03f,-1.14595227e-01f,-9.34839025e-02f,+1.09116159e-01f,+1.04621664e-01f,
-8.24386552e-02f,+3.02064419e-02f,-9.06947181e-02f,+1.15446061e-01f,+7.35784993e-02f,
-5.84388599e-02f,-4.50966544e-02f,+1.00541987e-01f,+2.15653256e-02f,-3.02668214e-01f,
+9.35209729e-03f,+1.13256849e-01f,-1.25975564e-01f,-1.20468058e-01f,-6.65748492e-02f,
-2.92676479e-01f,+3.59034725e-02f,-1.36468366e-01f,-9.26167518e-02f,-9.71229300e-02f,
+1.13578700e-01f,-1.31241843e-01f,-1.51430622e-01f,-4.99961562e-02f,+3.72184478e-02f,
+2.17811652e-02f,+1.17494881e-01f,-8.89289975e-02f,+9.77991056e-03f,+1.41934127e-01f,
-9.07135308e-02f,+1.11710280e-01f,+2.44697809e-01f,-2.68296245e-02f,+8.38068277e-02f,
-6.36160225e-02f,-4.83448654e-02f,+9.50042754e-02f,-2.39009354e-02f,-4.66629341e-02f,
+2.04733852e-02f,-4.47762489e-01f,-1.15757532e-01f,+1.47381976e-01f,-1.80378973e-01f,
+1.02104530e-01f,-1.70766383e-01f,-2.41340980e-01f,-2.26610377e-01f,+1.65020987e-01f,
-6.75896779e-02f,+8.70367363e-02f,-4.74074995e-03f,-3.79744530e-01f,+1.76568970e-01f,
-4.66129631e-01f,+2.96744350e-02f,-1.70726553e-01f,-1.25948906e-01f,-3.69545728e-01f,
+2.45065674e-01f,-9.92612913e-02f,-5.17261997e-02f,-2.47293189e-01f,-1.15149446e-01f,
-1.35885790e-01f,+1.28581196e-01f,-2.56306589e-01f,-2.25343987e-01f,+2.88925588e-01f,
-2.58542985e-01f,-2.45197073e-01f,-2.77578592e-01f,-2.36643374e-01f,-3.99495333e-01f,
+2.75904071e-02f,-3.36139619e-01f,-2.64749050e-01f,-1.96890891e-01f,+2.51417756e-01f,
-1.00584877e+00f,-1.94593698e-01f,-9.61442173e-01f,+3.10999990e-01f,-1.30192190e-01f,
-4.30487603e-01f,-1.76426649e-01f,-3.74738514e-01f,+3.58330132e-03f,-2.17206553e-01f,
-2.06085756e-01f,+1.72947496e-01f,-2.24758983e-01f,-9.06981170e-01f,-1.15904117e+00f,
+3.77199054e-01f,-6.40293896e-01f,-5.28967083e-01f,-4.40861583e-01f,+2.57667214e-01f,
-4.68639761e-01f,+2.40836293e-01f,-4.52188015e-01f,-3.33775103e-01f,-9.00986016e-01f,
+2.61177480e-01f,+1.78502724e-01f,-2.45660573e-01f,-2.16589451e-01f,-4.47885364e-01f,
-3.60772610e-01f,-1.70924947e-01f,+2.00521588e-01f,-3.56584370e-01f,-5.08206606e-01f,
+1.57395210e-02f,-6.38666272e-01f,-1.13938050e-02f,+7.82631263e-02f,+3.28300804e-01f,
+2.17473492e-01f,+7.76016340e-02f,+4.44304012e-02f,+8.15628096e-03f,-8.81491229e-02f,
-2.38335490e-01f,+1.31721660e-01f,-2.89182458e-03f,+3.40859927e-02f,+9.81351286e-02f,
+3.28220949e-02f,-2.06092019e-02f,+1.18023254e-01f,-1.02880821e-01f,+2.65877187e-01f,
-1.67364255e-01f,+5.54458285e-03f,+1.75965220e-01f,+2.59322613e-01f,+4.55554873e-01f,
+1.81561276e-01f,-6.59649149e-02f,+2.94541870e-03f,-9.71053913e-03f,-4.52559739e-02f,
+8.49529058e-02f,+5.55695482e-02f,-2.27290541e-01f,+2.98227444e-02f,+7.05906898e-02f,
-8.60586539e-02f,-1.03499785e-01f,-2.39652023e-01f,-1.39354602e-01f,+9.93678421e-02f,
+4.42575291e-02f,+3.16322818e-02f,-9.90554169e-02f,+1.01435512e-01f,-1.36175886e-01f,
+1.24510251e-01f,-3.04069798e-02f,+1.26845524e-01f,+5.26046753e-02f,-1.03578635e-03f,
-8.47343579e-02f,-1.47673994e-01f,-1.64338142e-01f,-2.71369636e-01f,-2.64615625e-01f,
-2.00265557e-01f,+1.00169154e-02f,-1.69002078e-02f,+2.06987366e-01f,-4.78358120e-02f,
+2.09706813e-01f,-1.12195425e-01f,-1.69203863e-01f,+1.48091197e-01f,-1.79673657e-01f,
-3.63531709e-02f,-5.26295230e-02f,+3.70615780e-01f,+4.10965323e-01f,-2.03615576e-01f,
-8.07258487e-02f,-2.65608747e-02f,-4.75397646e-01f,+1.88809142e-01f,-2.20196560e-01f,
-1.95232064e-01f,-1.61958009e-01f,-3.87549251e-01f,-1.12822436e-01f,-3.82069916e-01f,
+5.69286533e-02f,+4.37975898e-02f,+4.55176592e-01f,-5.93078077e-01f,+2.69028991e-01f,
-6.96744740e-01f,-5.11264980e-01f,+6.85703978e-02f,-8.54268149e-02f,-1.03985095e+00f,
-7.89995849e-01f,-1.26809090e-01f,-9.40510780e-02f,-2.97323376e-01f,-8.19916800e-02f,
-2.90037692e-01f,+3.58921051e-01f,+2.92186379e-01f,+1.31719142e-01f,+2.68453747e-01f,
+5.20506408e-03f,+1.58363551e-01f,+2.62596328e-02f,-2.56545693e-01f,+6.67219102e-01f,
-2.78525073e-02f,-1.79969192e-01f,-4.43698525e-01f,+3.08413178e-01f,-2.32163623e-01f,
+4.05467927e-01f,-1.46144599e-01f,-8.84614959e-02f,-1.99724540e-01f,-4.65358466e-01f,
-2.72505283e-01f,-1.67166531e-01f,-5.57687998e-01f,+5.99432051e-01f,+3.90336275e-01f,
-1.55130982e-01f,+1.38692975e-01f,-3.11241094e-02f,-1.65013522e-01f,-7.73702443e-01f,
+4.56193686e-01f,+2.47938815e-03f,-3.83546948e-01f,-3.01605970e-01f,-1.52120724e-01f,
+6.28499016e-02f,+1.76075548e-01f,-1.73280284e-01f,+4.54596654e-02f,-1.50450468e-01f,
+1.71889171e-01f,-1.92711651e-02f,-1.28435180e-01f,+2.42886350e-01f,-5.52190244e-02f,
-1.61640763e-01f,-6.14324436e-02f,+2.58132845e-01f,-1.86785594e-01f,+2.60718435e-01f,
+1.62125915e-01f,+3.50091696e-01f,-9.65380147e-02f,-1.27963513e-01f,+6.73899353e-01f,
-2.49357000e-01f,+5.91387302e-02f,+1.67897716e-01f,-1.14978455e-01f,-1.25666589e-01f,
+1.01812907e-01f,+5.00075042e-01f,-6.76238760e-02f,-5.17806178e-03f,-9.22225565e-02f,
+3.78186792e-01f,-3.04789931e-01f,+3.89622301e-01f,+4.29443121e-02f,-2.44396701e-02f,
-1.68198705e-01f,-1.40128121e-01f,-3.51703674e-01f,+3.79409224e-01f,-6.62712872e-01f,
+1.86534807e-01f,+6.95490390e-02f,+2.24763393e-01f,+4.58634436e-01f,+3.91734451e-01f,
-1.50540709e-01f,-1.48128554e-01f,+4.13695544e-01f,-3.09363544e-01f,+2.86411256e-01f,
+1.99617058e-01f,+3.64036649e-01f,+5.16169779e-02f,+4.92891729e-01f,+2.56620318e-01f,
+1.95456818e-01f,-1.97719038e-01f,+4.31866914e-01f,-1.61089212e-01f,-1.15580544e-01f,
+4.27694738e-01f,+2.48873681e-01f,+3.62018496e-01f,-2.52353013e-01f,+5.75317331e-02f,
-7.33529255e-02f,-6.67285323e-02f,-4.27319437e-01f,+6.71777055e-02f,-9.99816805e-02f,
+3.02934825e-01f,+3.07253972e-02f,+5.24066687e-02f,-4.84934449e-02f,+2.24538930e-02f,
+3.97943258e-02f,+2.39237443e-01f,+2.31094852e-01f,-3.86411667e-01f,+6.19959176e-01f,
+6.79574072e-01f,+1.34485057e-02f,+5.69277108e-02f,+2.50048731e-02f,-6.94208264e-01f,
+4.90982831e-02f,+2.37878963e-01f,-3.08791846e-01f,-4.28262979e-01f,+7.34107867e-02f,
+3.63143474e-01f,+2.08204091e-01f,-1.51940152e-01f,-1.06413580e-01f,+3.97625297e-01f,
+2.52752304e-01f,+2.46647239e-01f,-6.39981404e-03f,+1.25832349e-01f,+8.89719248e-01f,
-3.10293101e-02f,-1.34810537e-01f,+9.84054431e-02f,+1.79271430e-01f,+1.56690359e-01f,
+7.97674432e-02f,-1.63257509e-01f,+9.07272771e-02f,-1.44711629e-01f,-1.71820387e-01f,
+8.98450434e-01f,+2.34438814e-02f,-1.56024307e-01f,-1.80504963e-01f,-8.16260725e-02f,
-2.78750241e-01f,+2.85308361e-01f,-4.48407173e-01f,-7.61774957e-01f,+3.30539376e-01f,
-4.71992642e-01f,-5.72429085e-03f,+2.32178882e-01f,+7.19407052e-02f,+4.53564711e-02f,
+1.12914685e-02f,+3.82690310e-01f,-1.71705052e-01f,-1.19632341e-01f,-1.64192878e-02f,
-5.22975884e-02f,+9.64399427e-03f,+4.80804220e-02f,-1.41316816e-01f,+3.17280553e-02f,
+3.23811889e-01f,+3.03040538e-02f,+1.69222191e-01f,+1.78539772e-02f,+5.21979332e-02f,
+2.12332174e-01f,-2.87757963e-01f,-4.77596000e-02f,+1.80775255e-01f,+1.21354863e-01f,
+2.88786709e-01f,-1.47079498e-01f,+4.87754913e-03f,+5.76624162e-02f,+1.57321006e-01f,
-3.07646364e-01f,+7.96054155e-02f,-7.42296427e-02f,+1.02550931e-01f,-6.73997477e-02f,
-7.51485527e-02f,-3.74449193e-02f,+6.29441142e-02f,-9.39906985e-02f,-7.14289397e-02f,
-2.14454412e-01f,+7.56619722e-02f,+1.29150882e-01f,+1.36700094e-01f,-4.28150855e-02f,
+5.99541552e-02f,+1.95299074e-01f,-2.11797610e-01f,-1.61343291e-01f,-1.11592598e-01f,
-1.99166521e-01f,+3.81092399e-01f,-1.03862882e-01f,-6.82518780e-02f,-5.22531904e-02f,
-1.12078302e-01f,-4.62370664e-02f,+2.93523848e-01f,+5.81902266e-03f,+9.22075287e-02f,
+1.46496994e-02f,-7.25886151e-02f,+1.01635888e-01f,-1.59136485e-02f,-1.43946946e-01f,
-1.01358667e-01f,+2.00721830e-01f,-1.69103011e-01f,+8.93835630e-03f,+3.40096205e-02f,
-2.44446006e-02f,-6.70503974e-02f,+3.16228658e-01f,-4.39717472e-01f,-3.00955564e-01f,
-6.20241284e-01f,-9.77417767e-01f,-1.12992659e-01f,-1.90320209e-01f,-5.48883915e-01f,
-1.52073607e-01f,-2.06226170e-01f,-2.36051396e-01f,-3.22947413e-01f,+1.38879910e-01f,
-4.87432480e-02f,-2.98965663e-01f,-7.55390644e-01f,-6.16261840e-01f,-2.04715088e-01f,
-2.67738074e-01f,-4.46636558e-01f,-3.70595455e-01f,-4.05072756e-02f,+4.94328380e-01f,
-3.31804931e-01f,-2.69711196e-01f,-1.22482754e-01f,-9.12492946e-02f,-5.91973066e-01f,
-8.35843608e-02f,-1.89482227e-01f,-3.56283784e-01f,+2.67066687e-01f,+6.04277998e-02f,
+4.23909396e-01f,-4.57087755e-01f,+2.73082525e-01f,-2.66365618e-01f,-3.74527536e-02f,
-1.81738019e-01f,+1.45150498e-01f,-4.24141645e-01f,-3.61184999e-02f,+1.17917553e-01f,
-4.86575931e-01f,-1.55050382e-01f,-5.43738484e-01f,-2.20526367e-01f,+2.35467181e-01f,
-1.19101711e-01f,-3.37517917e-01f,-5.33923686e-01f,+2.64396250e-01f,+1.86986893e-01f,
+3.99229407e-01f,-2.68309236e-01f,+5.84871992e-02f,-1.76839352e-01f,+2.73797780e-01f,
+1.21992633e-01f,-1.85101539e-01f,+2.37958491e-01f,-3.80377501e-01f,+8.90663713e-02f,
+2.78019816e-01f,+2.18692616e-01f,+2.22695231e-01f,-4.64249551e-02f,-9.37438160e-02f,
-3.50002497e-01f,-7.64604956e-02f,+1.68751672e-01f,-8.18231255e-02f,-2.11128652e-01f,
-1.19332680e-02f,+2.28891540e-02f,-1.80001780e-01f,-1.43017381e-01f,-1.39427096e-01f,
+1.23401634e-01f,-1.89377949e-01f,-1.14362717e-01f,+1.24700069e-02f,+1.10580698e-01f,
+3.21912169e-02f,-5.76276958e-01f,+7.66988993e-02f,+2.67170131e-01f,-1.20280929e-01f,
-1.14428708e-02f,-1.17642842e-01f,+3.85733396e-01f,+1.85307249e-01f,-5.56094982e-02f,
+4.47351001e-02f,+1.09889917e-01f,-6.10009432e-02f,-1.77000672e-01f,-7.80997872e-02f,
+2.90611666e-02f,-3.62691879e-01f,-8.79836231e-02f,+7.39358887e-02f,+3.75771344e-01f,
-3.60016912e-01f,-6.45189136e-02f,-1.44076928e-01f,-7.39559233e-02f,+1.80705473e-01f,
+2.62048505e-02f,+1.41188592e-01f,+9.17481333e-02f,+1.56273663e-01f,-1.02779023e-01f,
-7.71693736e-02f,-1.00605842e-02f,-1.10693231e-01f,-1.18429758e-01f,-6.59965277e-01f,
+2.53821731e-01f,-7.10270228e-03f,+4.10478860e-01f,+5.21331690e-02f,-1.26283854e-01f,
+2.78099895e-01f,-6.04318455e-02f,+3.48718345e-01f,-2.78625727e-01f,-3.66498500e-01f,
-1.04841478e-01f,-1.28460571e-01f,+3.67614850e-02f,+2.72654630e-02f,-6.35594204e-02f,
-4.07368038e-03f,-1.16369843e-01f,+3.50483268e-01f,+5.69804981e-02f,-1.58415928e-01f,
+2.97310315e-02f,-8.56539160e-02f,-7.37425163e-02f,-1.89901084e-01f,+1.07087933e-01f,
-1.41251385e-01f,+1.62210047e-01f,-6.28408566e-02f,-5.53668812e-02f,+4.05582897e-02f,
+5.71930371e-02f,-1.12842977e-01f,+2.65609831e-01f,+7.45364372e-03f,-1.76661052e-02f,
-8.13067146e-03f,-2.86463916e-01f,+1.21465586e-01f,+1.03423502e-02f,-9.71244872e-02f,
-3.02913599e-04f,-2.38099899e-02f,+1.36253983e-01f,-9.26799104e-02f,+6.14217035e-02f,
-2.70455301e-01f,+8.98726806e-02f,+1.69886835e-02f,+5.33917546e-02f,+1.13712467e-01f,
+8.74888338e-03f,+1.23085771e-02f,+1.02869943e-01f,+5.43377958e-02f,-9.83192921e-02f,
-7.23313615e-02f,+1.92409530e-01f,+2.07476497e-01f,+8.73488709e-02f,-1.82369456e-01f,
-1.39608547e-01f,-5.32426685e-02f,-2.47278675e-01f,+6.23265021e-02f,-1.21000201e-01f,
-8.85479227e-02f,-1.05922058e-01f,-7.01083690e-02f,-7.13883191e-02f,+2.48378351e-01f,
-3.68519835e-02f,+5.09119034e-02f,+2.29590684e-01f,-1.12738624e-01f,-1.83437645e-01f,
-5.56266047e-02f,-1.76979706e-01f,+6.15834538e-03f,+2.63268322e-01f,-9.61641371e-02f,
+2.34169816e-03f,+9.62053016e-02f,+9.18106642e-03f,+8.60160738e-02f,-6.91063628e-02f,
+1.15629278e-01f,+4.06893939e-02f,-1.25151157e-01f,+2.01482009e-02f,+1.27516404e-01f,
-1.43640339e-01f,+1.10994682e-01f,-5.31210192e-02f,+1.28609881e-01f,-1.17632985e-01f,
-9.17951837e-02f,+2.07213446e-01f,-7.83317387e-02f,-1.84697792e-01f,+5.22608124e-03f,
-2.05060482e-01f,-1.35987967e-01f,-1.44871876e-01f,+2.61581153e-01f,+4.74488102e-02f,
-6.49411753e-02f,+1.60283625e-01f,+2.11680811e-02f,+2.26436276e-02f,-2.34710068e-01f,
+8.26703608e-02f,-9.58107188e-02f,-2.06579734e-02f,+2.16401294e-01f,-2.26731822e-02f,
-1.73288882e-02f,+1.96547825e-02f,-2.51193345e-01f,-1.66965589e-01f,-8.54787882e-03f,
+3.30160782e-02f,-1.69730876e-02f,-1.04674384e-01f,+7.84176029e-03f,-6.79238066e-02f,
-1.00772239e-01f,+1.12028480e-01f,+2.56097466e-01f,-1.22944847e-01f,+8.60878676e-02f,
-1.18115775e-01f,+5.75172007e-02f,-2.32083276e-02f,+8.10675547e-02f,+9.94873270e-02f,
-1.39972851e-01f,-4.73309569e-02f,+1.82229131e-02f,-3.12627941e-01f,-2.43223429e-01f,
-2.22630203e-01f,-3.87124062e-01f,-1.03827488e+00f,-9.82189626e-02f,-1.95780560e-01f,
-5.46210170e-01f,+3.06191176e-01f,-3.63919139e-02f,-2.66838819e-01f,-1.55335769e-01f,
-9.02083933e-01f,+2.15571836e-01f,-3.22746396e-01f,-6.14139736e-01f,+5.38613796e-01f,
-1.12779997e-01f,-6.47089601e-01f,-1.36715516e-01f,-2.85549223e-01f,+1.47960752e-01f,
+4.55136180e-01f,-4.23503220e-01f,-5.21619618e-01f,-1.40655309e-01f,-7.76526868e-01f,
+2.26116143e-02f,-4.70715538e-02f,-1.57305360e-01f,+3.85533661e-01f,-1.45645261e-01f,
-2.26413131e-01f,-9.70696628e-01f,-2.47098073e-01f,+9.03884992e-02f,-9.26425159e-02f,
-1.91370249e-02f,+3.94796655e-02f,-3.86130065e-01f,+7.85176903e-02f,+2.71569211e-02f,
-1.14383109e-01f,-9.54397917e-02f,+1.26291394e-01f,-5.03516495e-01f,-4.27090973e-02f,
-6.41153718e-04f,+2.15141237e-01f,-2.02473283e-01f,-4.74664390e-01f,+3.44430089e-01f,
-1.32622093e-01f,+1.90489843e-01f,-8.47058833e-01f,+1.48160785e-01f,-5.16417027e-01f,
+8.94471109e-02f,-5.91453493e-01f,-3.34443487e-02f,-6.99162707e-02f,-4.57502007e-01f,
+5.06748915e-01f,+1.67927109e-02f,-1.32713109e-01f,-3.51766646e-01f,+5.11922121e-01f,
+3.92061353e-01f,-2.34062165e-01f,-4.14094850e-02f,-3.55904177e-02f,-3.41613233e-01f,
+4.33922827e-01f,-1.73358411e-01f,-2.09335223e-01f,-1.79713905e-01f,-2.40564737e-02f,
+3.54019791e-01f,+2.37611592e-01f,-8.73531550e-02f,-4.01690185e-01f,-2.24185586e-01f,
+4.18750755e-02f,-5.61230361e-01f,-3.03765446e-01f,-2.39913553e-01f,-5.60525898e-03f,
+1.06955312e-01f,-3.36345136e-01f,-1.17645219e-01f,+1.99970290e-01f,+4.53136221e-04f,
+3.21443826e-02f,+3.53409303e-03f,+8.94898698e-02f,-1.05298143e-02f,+4.09572214e-01f,
-3.20863545e-01f,-1.78197995e-01f,-9.47707355e-01f,+3.51445079e-02f,-2.11409271e-01f,
-2.59910733e-01f,-1.26986399e-01f,-1.41727313e-01f,+1.10959373e-01f,-4.46635067e-01f,
-3.71342987e-01f,-5.66480696e-01f,+1.86155755e-02f,-3.07757743e-02f,+4.10567462e-01f,
+4.05386269e-01f,-1.52712435e-01f,+2.94957519e-01f,+5.16586125e-01f,-3.06229889e-01f,
+2.69678324e-01f,+2.12643057e-01f,-1.62221432e-01f,-4.47583586e-01f,-5.14887452e-01f,
-3.68220091e-01f,-3.18701684e-01f,+1.39207110e-01f,-2.95352101e-01f,-9.52296052e-03f,
+1.77382961e-01f,-2.48715237e-01f,+9.42214876e-02f,-4.84209433e-02f,+1.92827955e-01f,
-2.05008864e-01f,+9.18800384e-03f,-4.41725791e-01f,-5.52460313e-01f,-5.23679852e-01f,
-1.03955187e-01f,-3.09993505e-01f,-1.71158850e-01f,+7.76150674e-02f,-5.63683033e-01f,
-1.48962185e-01f,+6.73191668e-03f,+1.23095103e-01f,-1.88521728e-01f,-2.70008802e-01f,
-4.07311976e-01f,-3.56870472e-01f,-1.68033317e-01f,+1.78135127e-01f,-3.42692345e-01f,
-4.19840455e-01f,-9.37490072e-03f,+3.07573289e-01f,-6.08855009e-01f,-2.00933099e-01f,
+1.68036148e-01f,+3.71868670e-01f,-1.72678843e-01f,-9.70459059e-02f,-4.91634160e-01f,
-3.48827302e-01f,-3.98505270e-01f,-7.64497146e-02f,+1.17401555e-01f,-4.32739019e-01f,
-1.50030330e-01f,+4.06495064e-01f,+2.33663306e-01f,+1.37222424e-01f,-1.74229383e-01f,
-2.37349287e-01f,-3.62097323e-01f,+2.90235102e-01f,+5.33542573e-01f,+3.94911841e-02f,
-3.96092713e-01f,-6.54613018e-01f,+9.08521563e-02f,+1.57898739e-01f,+1.26239747e-01f,
-4.46606219e-01f,+9.16237086e-02f,-1.63009092e-01f,+1.74724787e-01f,-7.99575508e-01f,
-1.60338014e-01f,+1.65062934e-01f,-5.75236917e-01f,-1.06551908e-01f,+1.07462361e-01f,
-4.31625068e-01f,+3.13800484e-01f,-5.15941560e-01f,+2.37459928e-01f,+1.79725826e-01f,
-1.05818607e-01f,-2.12291166e-01f,-5.54145336e-01f,+9.45952907e-02f,-3.58989745e-01f,
-1.87239125e-01f,-8.85232762e-02f,-5.12852930e-02f,+3.16264004e-01f,-2.13134393e-01f,
-3.79040658e-01f,-3.44738036e-01f,-3.72836232e-01f,+2.01938197e-01f,-5.03244996e-01f,
+1.45997489e-02f,-2.51363605e-01f,-1.78138599e-01f,-5.88633239e-01f,-1.06179193e-01f,
-1.13267623e-01f,+1.09834731e-01f,-8.82193506e-01f,-5.10637350e-02f,-1.60008952e-01f,
-7.57433567e-03f,-4.09436405e-01f,+3.27912450e-01f,+5.33925816e-02f,-5.59775472e-01f,
-4.61388290e-01f,-5.91419078e-02f,-2.49204665e-01f,-6.27736449e-01f,-3.29062603e-02f,
-1.80907696e-01f,-6.49821877e-01f,-8.77881572e-02f,-4.32157755e-01f,-1.30299494e-01f,
-6.26462638e-01f,-3.27208817e-01f,-7.26878464e-01f,+3.74927312e-01f,-5.84353745e-01f,
-3.80238652e-01f,+3.30929071e-01f,+1.41868964e-01f,+5.24304748e-01f,-6.89298987e-01f,
+1.28553972e-01f,+2.52866626e-01f,-3.99785340e-01f,-1.98415015e-02f,-1.32490788e-02f,
-5.94994903e-01f,-2.84276277e-01f,-2.36983947e-03f,+2.81460047e-01f,+8.45716298e-02f,
+5.28731160e-02f,+3.26961726e-02f,-3.47181290e-01f,-7.96269417e-01f,-1.56645060e-01f,
-3.90532792e-01f,-2.32348651e-01f,-1.97484255e-01f,+6.98497221e-02f,-5.06531261e-02f,
-5.20746350e-01f,-4.90475446e-01f,-1.25221014e-02f,-5.06115742e-02f,-1.25184238e+00f,
+3.90606582e-01f,-2.26991266e-01f,+4.10418123e-01f,-4.92810011e-01f,-8.20505083e-01f,
-3.74028295e-01f,+2.36506388e-01f,+1.29681796e-01f,+5.12565494e-01f,-1.02759980e-01f,
+1.97245285e-01f,-4.44988281e-01f,-2.72229314e-01f,-1.50909185e-01f,+5.01384437e-01f,
-2.32729167e-02f,+2.99737811e-01f,-1.51205659e-01f,-7.63810351e-02f,+4.15203512e-01f,
+3.63352560e-02f,-3.53534073e-01f,-1.88431263e-01f,+3.47882420e-01f,-1.26785308e-01f,
-1.41405702e-01f,+2.62398422e-01f,-4.95069712e-01f,-2.26232782e-01f,+4.08750959e-02f,
-3.32443714e-01f,+3.23505491e-01f,-2.29177237e-01f,-5.26254892e-01f,+1.75827384e-01f,
-2.05708500e-02f,+8.22872281e-01f,+5.27858078e-01f,-5.98613560e-01f,-7.01076165e-02f,
-1.53360724e-01f,+5.03328741e-01f,+3.30619141e-02f,-4.35256213e-01f,-4.14439023e-01f,
-1.29010864e-02f,-4.37348746e-02f,-1.25946216e-02f,+6.80715293e-02f,+3.71392816e-02f,
-4.50216085e-02f,-9.60215181e-02f,-7.96214521e-01f,-5.55411130e-02f,+4.74231094e-02f,
+1.36606798e-01f,+2.65823808e-02f,+1.01424800e-02f,-1.72696337e-01f,-6.02583349e-01f,
-6.03809245e-02f,+6.58884108e-01f,+1.48183241e-01f,-4.57134187e-01f,+1.97153121e-01f,
+3.34857181e-02f,+2.50703573e-01f,-2.92601049e-01f,-8.76592845e-03f,-1.96607217e-01f,
+4.01737005e-01f,-3.71344954e-01f,+1.09320052e-01f,+5.32616302e-03f,+3.60743344e-01f,
-2.51839887e-02f,-6.42944947e-02f,-2.30724633e-01f,+3.30122173e-01f,-9.24234331e-01f,
+9.13802743e-01f,-1.30945310e-01f,+5.29210530e-02f,+2.29014874e-01f,-4.88939136e-02f,
+1.21495783e-01f,-1.56749442e-01f,+1.98370386e-02f,+5.30946553e-01f,-6.27070785e-01f,
-2.46119723e-01f,-3.42131615e-01f,-1.66387662e-01f,+1.09818108e-01f,-1.16461195e-01f,
+1.93296850e-01f,+2.78226346e-01f,-6.60675347e-01f,+2.94057101e-01f,+6.75741583e-02f,
+5.38478121e-02f,+1.44113436e-01f,+4.54701334e-02f,-1.96872815e-01f,-4.38523263e-01f,
+9.36544240e-02f,+2.34044995e-02f,-7.63429523e-01f,-5.03532104e-02f,-5.85725643e-02f,
-1.83576882e-01f,-5.70822418e-01f,-1.62557855e-01f,+3.77435654e-01f,-5.86103320e-01f,
+4.49224055e-01f,-6.50274992e-01f,-1.59323767e-01f,+9.60813835e-03f,+6.20194674e-02f,
-4.15225148e-01f,-3.00057709e-01f,-8.92540589e-02f,-2.12663397e-01f,+2.48203173e-01f,
-4.53206718e-01f,+8.11668113e-02f,+5.59196901e-03f,+1.76001452e-02f,-9.06506553e-03f,
+1.85652584e-01f,-2.32267812e-01f,-2.29577854e-01f,-2.52842922e-02f,-3.07973891e-01f,
-2.05678508e-01f,-5.96092381e-02f,-1.30711019e-01f,-5.78971267e-01f,-2.13803038e-01f,
-1.35407001e-01f,-3.76424819e-01f,+4.68554795e-01f,+7.83470452e-01f,+7.88770393e-02f,
+1.86654285e-01f,-8.96128833e-01f,-4.23435122e-01f,-1.33923337e-01f,-1.97090775e-01f,
-3.80578727e-01f,-3.49786431e-01f,-3.89057159e-01f,-2.08126694e-01f,-3.14501703e-01f,
-3.64741646e-02f,-2.31749371e-01f,-3.02016646e-01f,-8.66707265e-01f,-1.77925378e-02f,
+4.59674329e-01f,-4.42817122e-01f,-3.24052870e-01f,-2.41451696e-01f,-2.17834413e-01f,
+4.00226116e-01f,-3.54186922e-01f,-9.26674623e-03f,-4.12494868e-01f,+1.10196270e-01f,
-1.55055851e-01f,-5.38386762e-01f,-1.78691432e-01f,-4.20409925e-02f,+2.75483727e-01f,
+4.96913400e-03f,+5.52046858e-03f,-9.10071582e-02f,+1.29503608e-01f,+4.19742838e-02f,
+1.70599610e-01f,-2.35689551e-01f,+5.55267185e-02f,-1.07294470e-01f,+7.04464912e-02f,
+4.36219238e-02f,+1.34101152e-01f,-8.35497528e-02f,+2.32606024e-01f,+2.51393020e-02f,
-2.35470515e-02f,-2.32646167e-01f,-5.81682520e-03f,+5.26496880e-02f,-8.54392648e-02f,
-8.72137025e-03f,-4.76762466e-02f,+2.22884387e-01f,-4.45427112e-02f,-8.96140262e-02f,
-9.44807976e-02f,-1.21087357e-01f,-1.66082501e-01f,-7.76555762e-02f,-9.90963131e-02f,
+1.46451995e-01f,-8.76848921e-02f,-1.74087569e-01f,+2.26366799e-02f,-1.95156801e-02f,
-7.54633471e-02f,+7.24364743e-02f,-2.04176664e-01f,-1.23909600e-01f,-1.93075910e-01f,
-8.30762163e-02f,-2.01985732e-01f,+4.53068726e-02f,+1.26077933e-02f,+9.35683101e-02f,
-1.40001729e-01f,+5.44623472e-02f,-2.89358646e-02f,-9.12802517e-02f,-4.66337129e-02f,
+1.53821278e-02f,-4.88961227e-02f,-1.27787545e-01f,-1.21672034e-01f,+1.31314740e-01f,
-2.10443720e-01f,+4.43382002e-02f,-8.28335136e-02f,+6.61837757e-02f,+8.47985595e-02f,
+5.27724363e-02f,+9.15676281e-02f,-1.45696048e-02f,-1.48305804e-01f,-9.25351009e-02f,
-3.16641301e-01f,-5.99308848e-01f,-1.59398511e-01f,-3.02773774e-01f,+4.60267626e-02f,
-1.78901836e-01f,+1.76211447e-01f,-6.31140590e-01f,-3.05584192e-01f,-3.24087918e-01f,
+3.08443350e-03f,-9.52887684e-02f,-5.73464811e-01f,-4.04080719e-01f,-9.84933257e-01f,
-2.22773507e-01f,-6.60665631e-01f,-1.04220733e-01f,-2.55275458e-01f,+1.47329405e-01f,
+1.79349646e-01f,-6.66669458e-02f,-5.05562266e-03f,+2.42639944e-01f,-1.32243689e-02f,
-2.06138685e-01f,-1.31766066e-01f,-2.89424192e-02f,-2.51014650e-01f,-1.88795969e-01f,
-3.49390954e-01f,-4.18957204e-01f,-2.26665869e-01f,-2.55995661e-01f,-1.93688303e-01f,
-4.13997352e-01f,-1.12453379e-01f,-1.79410681e-01f,-2.25324675e-01f,-5.73958643e-02f,
-6.58877671e-01f,+4.97240156e-01f,-6.44614041e-01f,+4.77789640e-01f,-3.92723024e-01f,
-3.04665744e-01f,+1.25310551e-02f,-3.52909535e-01f,-1.63313568e-01f,+2.50490576e-01f,
-3.23702514e-01f,-2.80996054e-01f,-2.15635896e-01f,-1.84205562e-01f,+1.62491128e-01f,
-1.17261089e-01f,-5.38857169e-02f,-2.98590571e-01f,+1.80399865e-01f,-1.83610111e-01f,
-1.72217950e-01f,-1.18474420e-02f,-4.24159646e-01f,-4.15747702e-01f,-2.93442495e-02f,
-3.07927020e-02f,-1.61998048e-01f,+4.09371965e-02f,+1.09888367e-01f,-1.76682949e-01f,
-6.02597967e-02f,+9.16915983e-02f,+7.14388792e-04f,-6.89992756e-02f,+9.55430511e-03f,
-1.42052904e-01f,-7.65032619e-02f,+7.85032362e-02f,-1.10265873e-01f,-1.49985075e-01f,
-6.53634369e-02f,+4.75511421e-03f,-1.17718264e-01f,-3.45903225e-02f,+1.22474708e-01f,
+4.73261587e-02f,+1.60009246e-02f,-9.30638909e-02f,-1.60078228e-01f,-1.50583938e-01f,
+1.45118907e-02f,+4.40489426e-02f,+4.71108481e-02f,+1.38123915e-01f,-7.96810240e-02f,
-7.39429593e-02f,+1.62805527e-01f,-1.12870827e-01f,+9.28715020e-02f,-7.66433328e-02f,
+2.23015398e-02f,-1.36649072e-01f,+5.68441395e-03f,+8.87519214e-03f,-1.32810682e-01f,
+6.50967062e-02f,+1.08101591e-01f,-6.92166463e-02f,+6.11699969e-02f,+8.25811327e-02f,
+1.00012757e-01f,+7.24613369e-02f,+9.75043997e-02f,-1.63149402e-01f,+1.06867231e-01f,
+1.08436616e-02f,-8.42379183e-02f,+3.79366502e-02f,-4.69087884e-02f,-3.46975252e-02f,
-9.69263390e-02f,-1.50859326e-01f,+1.39581323e-01f,+3.52447405e-02f,+9.80672240e-03f,
+1.10943705e-01f,-8.62409920e-02f,+1.30340844e-01f,+1.83973629e-02f,-2.95528352e-01f,
+7.01378137e-02f,+7.60844573e-02f,-1.01267144e-01f,-3.80751751e-02f,+2.99007799e-02f,
-2.22587157e-02f,-1.27178937e-01f,+3.47729288e-02f,-7.56355897e-02f,-4.13608178e-02f,
+5.39611280e-02f,+3.22569720e-02f,-5.45915589e-02f,-6.40070364e-02f,+6.17207140e-02f,
+7.94664323e-02f,+6.86990097e-02f,-1.71010513e-02f,+1.10904865e-01f,-5.43932728e-02f,
-6.12553805e-02f,-1.15161110e-02f,-1.42006604e-02f,+7.00783208e-02f,-7.51286075e-02f,
+8.28999504e-02f,-1.14210404e-01f,-3.80871966e-02f,+1.16106659e-01f,+2.38316646e-03f,
+4.03817818e-02f,+2.39183195e-02f,-7.79910237e-02f,+1.22402534e-01f,+1.68136850e-01f,
-1.32884815e-01f,-1.32347584e-01f,-7.13470876e-02f,+2.88297255e-02f,+1.99039467e-02f,
+1.52560815e-01f,+8.28327835e-02f,+8.24173242e-02f,+1.27812192e-01f,-2.57883705e-02f,
-1.32652089e-01f,-1.34119123e-01f,-1.14327542e-01f,-9.37822089e-02f,-9.63855349e-03f,
-1.48629518e-02f,+9.98262540e-02f,-2.60488987e-02f,+1.02297492e-01f,+3.94209176e-02f,
+9.62105989e-02f,+1.54809197e-02f,-1.36112303e-01f,-1.56787485e-02f,+8.14059228e-02f,
-1.56672284e-01f,+9.44773778e-02f,-3.71229976e-01f,-7.04558611e-01f,-4.63059425e-01f,
-1.65877678e-02f,-4.68796104e-01f,+3.56027149e-02f,-3.54864329e-01f,-2.92940795e-01f,
+1.21500983e-03f,-9.82346851e-03f,-2.17414990e-01f,-3.35680962e-01f,-4.13086027e-01f,
+3.33068639e-01f,-1.41227096e-01f,-5.32012284e-01f,+1.87238585e-02f,-2.14169055e-01f,
-3.86620909e-01f,-2.24745527e-01f,-2.33547226e-01f,-4.51138496e-01f,-2.77357876e-01f,
